{"learner":{"attributes":{"scikit_learn":"{\"_estimator_type\": \"classifier\"}"},"feature_names":["weather_code","is_indoor","dow_hour_mean","base_hourly_charge","month","holiday_week","is_holiday","weekend_peak","month_cos","day_of_week","day_of_year","summer_peak","summer_season","has_parking","week_of_year"],"feature_types":["int","int","float","int","int","int","int","int","float","int","int","int","int","int","int"],"gradient_booster":{"model":{"cats":{"enc":[],"feature_segments":[],"sorted_idx":[]},"gbtree_model_param":{"num_parallel_tree":"1","num_trees":"200"},"iteration_indptr":[0,1,2,3,4,5,6,7,8,9,10,11,12,13,14,15,16,17,18,19,20,21,22,23,24,25,26,27,28,29,30,31,32,33,34,35,36,37,38,39,40,41,42,43,44,45,46,47,48,49,50,51,52,53,54,55,56,57,58,59,60,61,62,63,64,65,66,67,68,69,70,71,72,73,74,75,76,77,78,79,80,81,82,83,84,85,86,87,88,89,90,91,92,93,94,95,96,97,98,99,100,101,102,103,104,105,106,107,108,109,110,111,112,113,114,115,116,117,118,119,120,121,122,123,124,125,126,127,128,129,130,131,132,133,134,135,136,137,138,139,140,141,142,143,144,145,146,147,148,149,150,151,152,153,154,155,156,157,158,159,160,161,162,163,164,165,166,167,168,169,170,171,172,173,174,175,176,177,178,179,180,181,182,183,184,185,186,187,188,189,190,191,192,193,194,195,196,197,198,199,200],"tree_info":[0,0,0,0,0,0,0,0,0,0,0,0,0,0,0,0,0,0,0,0,0,0,0,0,0,0,0,0,0,0,0,0,0,0,0,0,0,0,0,0,0,0,0,0,0,0,0,0,0,0,0,0,0,0,0,0,0,0,0,0,0,0,0,0,0,0,0,0,0,0,0,0,0,0,0,0,0,0,0,0,0,0,0,0,0,0,0,0,0,0,0,0,0,0,0,0,0,0,0,0,0,0,0,0,0,0,0,0,0,0,0,0,0,0,0,0,0,0,0,0,0,0,0,0,0,0,0,0,0,0,0,0,0,0,0,0,0,0,0,0,0,0,0,0,0,0,0,0,0,0,0,0,0,0,0,0,0,0,0,0,0,0,0,0,0,0,0,0,0,0,0,0,0,0,0,0,0,0,0,0,0,0,0,0,0,0,0,0,0,0,0,0,0,0,0,0,0,0,0,0],"trees":[{"base_weights":[-1.9357257E-4,-5.0710714E-1,5.948221E-1,-1.3443838E0,1.04414314E-1,1.0466752E0,5.6383327E-2,-1.4846395E0,-5.882044E-1,-7.964671E-1,4.8438707E-1,4.5198157E-1,1.3184992E0,-8.2330245E-1,4.2920136E-1,-1.5537826E0,-1.3913584E0,-8.614634E-1,-5.0062567E-1,-9.5721555E-1,-7.4802977E-1,2.8897086E-1,1.0394746E0,6.75417E-1,2.3004797E-1,1.2104259E0,1.6654531E0,-6.2954694E-1,-1.0088365E0,2.2286732E-1,1.0137918E0,-7.828633E-2,-7.563244E-2,-6.98516E-2,-3.813324E-2,-7.246566E-2,-2.503925E-2,-2.7165351E-2,-2.275882E-2,-7.344126E-2,-3.812659E-2,-3.802742E-2,-3.2712806E-3,7.7085453E-3,1.7165828E-2,5.109295E-2,7.207729E-2,2.3807434E-2,3.7611056E-2,1.8445579E-3,1.5265146E-2,6.911367E-2,5.2073278E-2,8.876291E-2,7.799355E-2,-4.1097514E-2,-2.860496E-2,-5.0846513E-2,-2.7432535E-2,2.3603437E-2,-1.2388921E-3,5.9996367E-2,4.141455E-2],"categories":[],"categories_nodes":[],"categories_segments":[],"categories_sizes":[],"default_left":[0,0,0,0,0,0,0,0,0,0,0,0,0,0,0,0,0,0,0,0,0,0,0,0,0,0,0,0,0,0,0,0,0,0,0,0,0,0,0,0,0,0,0,0,0,0,0,0,0,0,0,0,0,0,0,0,0,0,0,0,0,0,0],"id":0,"left_children":[1,3,5,7,9,11,13,15,17,19,21,23,25,27,29,31,33,35,37,39,41,43,45,47,49,51,53,55,57,59,61,-1,-1,-1,-1,-1,-1,-1,-1,-1,-1,-1,-1,-1,-1,-1,-1,-1,-1,-1,-1,-1,-1,-1,-1,-1,-1,-1,-1,-1,-1,-1,-1],"loss_changes":[8.9148164E4,8.171603E4,3.307969E4,7.143383E3,3.1573023E4,1.1949594E4,2.034721E4,3.6382812E2,2.5167041E2,2.1208789E2,7.036507E3,1.1498008E3,1.8998984E3,6.629961E2,5.2555884E3,1.31171875E1,8.493359E1,5.411046E2,1.5119873E1,6.291587E2,1.7958594E2,3.5140552E2,1.1776953E2,1.7634814E2,1.6911194E2,1.121543E3,1.3629297E2,9.9225586E1,3.43584E1,1.9877412E3,3.9118848E2,0E0,0E0,0E0,0E0,0E0,0E0,0E0,0E0,0E0,0E0,0E0,0E0,0E0,0E0,0E0,0E0,0E0,0E0,0E0,0E0,0E0,0E0,0E0,0E0,0E0,0E0,0E0,0E0,0E0,0E0,0E0,0E0],"parents":[2147483647,0,0,1,1,2,2,3,3,4,4,5,5,6,6,7,7,8,8,9,9,10,10,11,11,12,12,13,13,14,14,15,15,16,16,17,17,18,18,19,19,20,20,21,21,22,22,23,23,24,24,25,25,26,26,27,27,28,28,29,29,30,30],"right_children":[2,4,6,8,10,12,14,16,18,20,22,24,26,28,30,32,34,36,38,40,42,44,46,48,50,52,54,56,58,60,62,-1,-1,-1,-1,-1,-1,-1,-1,-1,-1,-1,-1,-1,-1,-1,-1,-1,-1,-1,-1,-1,-1,-1,-1,-1,-1,-1,-1,-1,-1,-1,-1],"split_conditions":[1E0,0E0,0E0,5.056383E-1,2.9510638E-1,2.9510638E-1,2.9510638E-1,3.2659575E-1,-5E-1,-5E-1,5.056383E-1,1E0,5.056383E-1,1E0,5.056383E-1,3.0031914E-1,1E0,6E0,1E0,6E0,1E0,3.2659575E-1,1E0,-5E-1,-5E-1,1E0,1E0,-5E-1,1E0,1E0,1E0,-7.828633E-2,-7.563244E-2,-6.98516E-2,-3.813324E-2,-7.246566E-2,-2.503925E-2,-2.7165351E-2,-2.275882E-2,-7.344126E-2,-3.812659E-2,-3.802742E-2,-3.2712806E-3,7.7085453E-3,1.7165828E-2,5.109295E-2,7.207729E-2,2.3807434E-2,3.7611056E-2,1.8445579E-3,1.5265146E-2,6.911367E-2,5.2073278E-2,8.876291E-2,7.799355E-2,-4.1097514E-2,-2.860496E-2,-5.0846513E-2,-2.7432535E-2,2.3603437E-2,-1.2388921E-3,5.9996367E-2,4.141455E-2],"split_indices":[1,0,0,2,2,2,2,2,8,8,2,13,2,13,2,2,6,4,13,4,5,2,5,8,8,13,13,8,5,13,13,0,0,0,0,0,0,0,0,0,0,0,0,0,0,0,0,0,0,0,0,0,0,0,0,0,0,0,0,0,0,0,0],"split_type":[0,0,0,0,0,0,0,0,0,0,0,0,0,0,0,0,0,0,0,0,0,0,0,0,0,0,0,0,0,0,0,0,0,0,0,0,0,0,0,0,0,0,0,0,0,0,0,0,0,0,0,0,0,0,0,0,0,0,0,0,0,0,0],"sum_hessian":[2.9556084E5,1.5959603E5,1.3596481E5,6.73632E4,9.223282E4,7.392575E4,6.2039066E4,5.6822598E4,1.054061E4,2.7360959E4,6.4871863E4,2.3191324E4,5.0734426E4,1.846596E4,4.3573105E4,3.262304E4,2.4199557E4,2.5556687E3,7.9849414E3,6.3302275E3,2.1030732E4,4.7981895E4,1.6889969E4,1.1555216E4,1.1636108E4,3.868849E4,1.2045938E4,9.035476E3,9.430486E3,3.220713E4,1.1365973E4,2.524848E4,7.374559E3,2.3981629E4,2.1792766E2,9.7042676E2,1.585242E3,4.110515E3,3.874426E3,1.7427468E3,4.5874805E3,2.0651717E4,3.7901535E2,1.3787988E4,3.4193906E4,1.6185012E4,7.04956E2,3.2172585E3,8.337958E3,3.2632632E3,8.372845E3,1.9176154E4,1.9512334E4,5.8958887E3,6.1500503E3,2.0737417E3,6.961734E3,9.265969E3,1.6451704E2,1.6052829E4,1.6154302E4,5.67001E3,5.695963E3],"tree_param":{"num_deleted":"0","num_feature":"15","num_nodes":"63","size_leaf_vector":"1"}},{"base_weights":[-9.413918E-4,-4.805871E-1,5.633576E-1,-1.0946106E0,-1.9327733E-1,-1.15016766E-1,8.641697E-1,-8.665403E-1,-1.3607887E0,2.7191475E-2,-7.3031265E-1,2.0402665E-1,-8.6860365E-1,1.0173393E0,-2.1213447E-1,-1.0394413E0,-8.06732E-1,-1.1800468E0,-1.4550807E0,-1.8231004E-1,6.3782215E-1,-8.951326E-1,-2.2343819E-1,3.8684142E-1,4.940863E-2,-5.847921E-1,-1.2404934E0,8.8769513E-1,1.4072449E0,-4.389765E-1,4.4838718E-1,-7.042547E-2,-4.3239485E-2,-3.509752E-2,-4.4146314E-2,-6.466077E-2,-5.7025023E-2,-7.307495E-2,-4.764962E-2,-1.9689794E-3,-1.7560283E-2,3.761387E-2,2.1302572E-2,-3.829618E-2,-6.986427E-2,-4.309566E-3,-3.8576633E-2,1.3524889E-2,2.4880012E-2,5.4043806E-3,-8.936225E-3,-3.635728E-2,-2.2388257E-2,-5.669282E-2,-7.3192485E-2,5.006845E-2,2.1013832E-2,7.44189E-2,5.4134734E-2,-1.3936277E-2,-3.9578103E-2,3.0729923E-2,3.7042387E-3],"categories":[],"categories_nodes":[],"categories_segments":[],"categories_sizes":[],"default_left":[0,0,0,0,0,0,0,0,0,0,0,0,0,0,0,0,0,0,0,0,0,0,0,0,0,0,0,0,0,0,0,0,0,0,0,0,0,0,0,0,0,0,0,0,0,0,0,0,0,0,0,0,0,0,0,0,0,0,0,0,0,0,0],"id":1,"left_children":[1,3,5,7,9,11,13,15,17,19,21,23,25,27,29,31,33,35,37,39,41,43,45,47,49,51,53,55,57,59,61,-1,-1,-1,-1,-1,-1,-1,-1,-1,-1,-1,-1,-1,-1,-1,-1,-1,-1,-1,-1,-1,-1,-1,-1,-1,-1,-1,-1,-1,-1,-1,-1],"loss_changes":[8.000358E4,2.8186523E4,2.7713422E4,3.0903086E3,1.2887547E4,1.0031269E4,1.5511148E4,2.8256055E2,3.9833594E2,9.872192E3,2.646287E3,8.2850256E2,1.3088535E3,4.161883E3,1.7566101E3,4.5260156E2,1.6192383E2,3.421875E1,4.797461E1,1.3869685E3,4.773369E2,1.5496699E3,5.847221E2,1.7285071E2,2.1262921E2,1.368628E2,1.25825195E2,3.2838633E3,5.3910547E2,4.9270508E2,1.863382E2,0E0,0E0,0E0,0E0,0E0,0E0,0E0,0E0,0E0,0E0,0E0,0E0,0E0,0E0,0E0,0E0,0E0,0E0,0E0,0E0,0E0,0E0,0E0,0E0,0E0,0E0,0E0,0E0,0E0,0E0,0E0,0E0],"parents":[2147483647,0,0,1,1,2,2,3,3,4,4,5,5,6,6,7,7,8,8,9,9,10,10,11,11,12,12,13,13,14,14,15,15,16,16,17,17,18,18,19,19,20,20,21,21,22,22,23,23,24,24,25,25,26,26,27,27,28,28,29,29,30,30],"right_children":[2,4,6,8,10,12,14,16,18,20,22,24,26,28,30,32,34,36,38,40,42,44,46,48,50,52,54,56,58,60,62,-1,-1,-1,-1,-1,-1,-1,-1,-1,-1,-1,-1,-1,-1,-1,-1,-1,-1,-1,-1,-1,-1,-1,-1,-1,-1,-1,-1,-1,-1,-1,-1],"split_conditions":[1E0,2.9510638E-1,2.9510638E-1,1.4E3,1.8E3,1.8E3,2.5E3,-5E-1,1.8E3,5.056383E-1,5.056383E-1,1.2E3,2.5E3,5.056383E-1,5.056383E-1,6E0,1.1E3,-5E-1,1E0,1.2E3,1.3E3,2.5E3,2.5E3,1.76E2,1.5E3,1.77E2,3E3,1.8E3,1.8E3,3E3,3E3,-7.042547E-2,-4.3239485E-2,-3.509752E-2,-4.4146314E-2,-6.466077E-2,-5.7025023E-2,-7.307495E-2,-4.764962E-2,-1.9689794E-3,-1.7560283E-2,3.761387E-2,2.1302572E-2,-3.829618E-2,-6.986427E-2,-4.309566E-3,-3.8576633E-2,1.3524889E-2,2.4880012E-2,5.4043806E-3,-8.936225E-3,-3.635728E-2,-2.2388257E-2,-5.669282E-2,-7.3192485E-2,5.006845E-2,2.1013832E-2,7.44189E-2,5.4134734E-2,-1.3936277E-2,-3.9578103E-2,3.0729923E-2,3.7042387E-3],"split_indices":[1,2,2,3,3,3,3,8,3,2,2,3,3,2,2,4,3,8,6,3,3,3,3,10,3,10,3,3,3,3,3,0,0,0,0,0,0,0,0,0,0,0,0,0,0,0,0,0,0,0,0,0,0,0,0,0,0,0,0,0,0,0,0],"split_type":[0,0,0,0,0,0,0,0,0,0,0,0,0,0,0,0,0,0,0,0,0,0,0,0,0,0,0,0,0,0,0,0,0,0,0,0,0,0,0,0,0,0,0,0,0,0,0,0,0,0,0,0,0,0,0,0,0,0,0,0,0,0,0],"sum_hessian":[2.9558097E5,1.5977497E5,1.3580598E5,5.0928906E4,1.08846055E5,4.1720543E4,9.4085445E4,2.7430549E4,2.349836E4,7.716742E4,3.1678637E4,2.9311645E4,1.2408898E4,8.236428E4,1.1721164E4,7.044827E3,2.0385723E4,8.061591E3,1.5436769E4,5.7455574E4,1.9711848E4,2.390457E4,7.7740674E3,1.3430093E4,1.5881553E4,7.0396304E3,5.369268E3,6.1814676E4,2.0549607E4,8.7252E3,2.9959634E3,2.2602334E3,4.7845938E3,8.58806E3,1.1797662E4,2.0779075E3,5.983683E3,1.5239657E4,1.9711162E2,3.1120947E4,2.6334625E4,1.2793888E4,6.917959E3,1.9014838E4,4.8897324E3,6.2183916E3,1.5556754E3,6.552199E3,6.877893E3,1.2633149E4,3.2484028E3,3.4500269E3,3.5896033E3,3.639021E3,1.7302473E3,4.9721246E4,1.2093429E4,1.6436463E4,4.1131455E3,6.0003022E3,2.7248982E3,2.0740122E3,9.2195123E2],"tree_param":{"num_deleted":"0","num_feature":"15","num_nodes":"63","size_leaf_vector":"1"}},{"base_weights":[1.231805E-3,-6.190403E-1,2.846328E-1,-3.079972E-1,-1.02222E0,5.915804E-1,-1.252312E-1,-4.4754216E-1,-2.597652E-1,-8.319926E-1,-1.2206731E0,4.3899173E-1,1.0468674E0,-2.9796723E-1,3.9399558E-1,-9.024206E-1,-2.40384E-1,1.05887234E-1,-2.761137E-1,-6.7788976E-1,-1.0690498E0,-8.7777877E-1,-1.3773074E0,2.4091452E-1,6.1194366E-1,8.4668136E-1,1.208139E0,-8.232692E-2,-6.454238E-1,5.858739E-1,8.151371E-2,-3.4615077E-2,-6.2525116E-2,-7.737057E-3,-1.6843209E-2,-9.900401E-4,9.304559E-3,-1.0843795E-2,-1.6849143E-2,-3.8576704E-2,-2.8620154E-2,-4.9073197E-2,-6.980959E-2,-5.2200474E-2,-4.140918E-2,-6.488633E-2,-7.1778946E-2,6.4725415E-3,2.057198E-2,3.4609392E-2,2.3709366E-2,3.21664E-2,4.563189E-2,5.9625782E-2,7.816981E-2,-1.3697418E-2,4.3357476E-3,-2.6407132E-2,-5.5187292E-2,1.2733023E-2,4.2036477E-2,1.0383915E-2,-2.1327397E-2],"categories":[],"categories_nodes":[],"categories_segments":[],"categories_sizes":[],"default_left":[0,0,0,0,0,0,0,0,0,0,0,0,0,0,0,0,0,0,0,0,0,0,0,0,0,0,0,0,0,0,0,0,0,0,0,0,0,0,0,0,0,0,0,0,0,0,0,0,0,0,0,0,0,0,0,0,0,0,0,0,0,0,0],"id":2,"left_children":[1,3,5,7,9,11,13,15,17,19,21,23,25,27,29,31,33,35,37,39,41,43,45,47,49,51,53,55,57,59,61,-1,-1,-1,-1,-1,-1,-1,-1,-1,-1,-1,-1,-1,-1,-1,-1,-1,-1,-1,-1,-1,-1,-1,-1,-1,-1,-1,-1,-1,-1,-1,-1],"loss_changes":[5.1902293E4,1.1611652E4,2.5496504E4,3.5162207E2,1.5209961E3,8.049754E3,7.783664E3,1.2646619E3,2.3228296E2,7.513086E2,1.058291E3,2.9731367E3,9.377324E2,4.879055E3,1.2988384E3,3.0604443E2,7.612219E1,1.6786373E1,1.3395093E2,1.2269238E2,2.3065137E2,4.990039E1,6.048047E1,7.6893384E2,5.1171484E2,1.733164E2,8.7072266E1,1.3016771E3,1.339665E3,1.1326245E3,5.2847314E2,0E0,0E0,0E0,0E0,0E0,0E0,0E0,0E0,0E0,0E0,0E0,0E0,0E0,0E0,0E0,0E0,0E0,0E0,0E0,0E0,0E0,0E0,0E0,0E0,0E0,0E0,0E0,0E0,0E0,0E0,0E0,0E0],"parents":[2147483647,0,0,1,1,2,2,3,3,4,4,5,5,6,6,7,7,8,8,9,9,10,10,11,11,12,12,13,13,14,14,15,15,16,16,17,17,18,18,19,19,20,20,21,21,22,22,23,23,24,24,25,25,26,26,27,27,28,28,29,29,30,30],"right_children":[2,4,6,8,10,12,14,16,18,20,22,24,26,28,30,32,34,36,38,40,42,44,46,48,50,52,54,56,58,60,62,-1,-1,-1,-1,-1,-1,-1,-1,-1,-1,-1,-1,-1,-1,-1,-1,-1,-1,-1,-1,-1,-1,-1,-1,-1,-1,-1,-1,-1,-1,-1,-1],"split_conditions":[2.9510638E-1,1.4E3,1.4E3,-5E-1,0E0,5.056383E-1,5.056383E-1,1E0,9E2,2E3,1.8E3,0E0,0E0,2E3,2E3,0E0,1E0,2E0,1E0,1E0,3E3,-5E-1,2E3,1.2E3,1.2E3,-5E-1,1E0,0E0,3E3,0E0,3E3,-3.4615077E-2,-6.2525116E-2,-7.737057E-3,-1.6843209E-2,-9.900401E-4,9.304559E-3,-1.0843795E-2,-1.6849143E-2,-3.8576704E-2,-2.8620154E-2,-4.9073197E-2,-6.980959E-2,-5.2200474E-2,-4.140918E-2,-6.488633E-2,-7.1778946E-2,6.4725415E-3,2.057198E-2,3.4609392E-2,2.3709366E-2,3.21664E-2,4.563189E-2,5.9625782E-2,7.816981E-2,-1.3697418E-2,4.3357476E-3,-2.6407132E-2,-5.5187292E-2,1.2733023E-2,4.2036477E-2,1.0383915E-2,-2.1327397E-2],"split_indices":[2,3,3,8,0,2,2,12,3,3,3,0,0,3,3,0,13,9,13,13,3,8,3,3,3,8,5,0,3,0,3,0,0,0,0,0,0,0,0,0,0,0,0,0,0,0,0,0,0,0,0,0,0,0,0,0,0,0,0,0,0,0,0],"split_type":[0,0,0,0,0,0,0,0,0,0,0,0,0,0,0,0,0,0,0,0,0,0,0,0,0,0,0,0,0,0,0,0,0,0,0,0,0,0,0,0,0,0,0,0,0,0,0,0,0,0,0,0,0,0,0,0,0,0,0,0,0,0,0],"sum_hessian":[2.9525684E5,9.259501E4,2.0266184E5,5.227123E4,4.0323773E4,1.158794E5,8.678245E4,1.3423406E4,3.8847824E4,2.0591756E4,1.973202E4,8.679318E4,2.9086213E4,6.5119277E4,2.1663176E4,4.199018E3,9.224389E3,1.6620514E3,3.7185773E4,1.2482181E4,8.1095747E3,6.1897324E3,1.3542286E4,4.0459367E4,4.6333816E4,1.298074E4,1.6105472E4,4.0182598E4,2.4936682E4,1.3420863E4,8.242312E3,2.6206443E3,1.5783737E3,4.8887114E3,4.335677E3,6.4727875E2,1.0147726E3,1.8848805E4,1.8336969E4,6.608071E3,5.87411E3,6.4006343E3,1.7089406E3,1.4168223E3,4.77291E3,5.7360083E3,7.806278E3,2.446823E4,1.5991135E4,2.9275463E4,1.7058354E4,3.18237E3,9.79837E3,1.5431888E4,6.735843E2,1.8833426E4,2.1349172E4,1.9857803E4,5.0788784E3,5.83727E3,7.5835938E3,6.6033735E3,1.638938E3],"tree_param":{"num_deleted":"0","num_feature":"15","num_nodes":"63","size_leaf_vector":"1"}},{"base_weights":[7.841631E-4,-4.5641667E-1,5.378421E-1,-1.2474195E0,1.2061075E-1,9.7146136E-1,2.2133578E-2,-1.3673333E0,-6.037894E-1,-6.724487E-1,4.5402294E-1,4.613722E-1,1.2064245E0,-7.363794E-1,3.4535736E-1,-1.4146665E0,-1.3037353E0,-8.67244E-1,-5.188585E-1,-8.093698E-1,-6.314373E-1,2.855921E-1,9.330757E-1,6.566849E-1,2.6833344E-1,1.1151432E0,1.4993571E0,-5.732162E-1,-8.9235604E-1,1.6502316E-1,8.571921E-1,-7.229117E-2,-7.0408374E-2,-6.54433E-2,-3.6687195E-2,-6.906481E-2,-2.7611097E-2,-2.7565805E-2,-2.4218291E-2,-6.3811354E-2,-3.16227E-2,-3.2136586E-2,-5.57383E-4,6.87742E-3,1.6578937E-2,4.5784388E-2,6.6453755E-2,2.4126982E-2,3.6222227E-2,4.39946E-3,1.6950833E-2,6.318378E-2,4.837301E-2,7.985062E-2,7.026732E-2,-3.8165506E-2,-2.5859406E-2,-4.5017388E-2,-2.158069E-2,1.9579042E-2,-3.114514E-3,5.161605E-2,3.4127574E-2],"categories":[],"categories_nodes":[],"categories_segments":[],"categories_sizes":[],"default_left":[0,0,0,0,0,0,0,0,0,0,0,0,0,0,0,0,0,0,0,0,0,0,0,0,0,0,0,0,0,0,0,0,0,0,0,0,0,0,0,0,0,0,0,0,0,0,0,0,0,0,0,0,0,0,0,0,0,0,0,0,0,0,0],"id":3,"left_children":[1,3,5,7,9,11,13,15,17,19,21,23,25,27,29,31,33,35,37,39,41,43,45,47,49,51,53,55,57,59,61,-1,-1,-1,-1,-1,-1,-1,-1,-1,-1,-1,-1,-1,-1,-1,-1,-1,-1,-1,-1,-1,-1,-1,-1,-1,-1,-1,-1,-1,-1,-1,-1],"loss_changes":[7.236404E4,7.265945E4,3.0304957E4,5.181211E3,2.4338596E4,8.822609E3,1.5176677E4,1.6808594E2,2.3536621E2,1.5227832E2,5.228339E3,8.751279E2,1.3455938E3,4.700205E2,4.0062065E3,4.0351562E0,6.941016E1,4.150393E2,8.5354E0,5.171958E2,1.4683789E2,3.263296E2,1.1450488E2,1.3567139E2,1.4880609E2,8.4145703E2,1.0713086E2,9.575537E1,3.4251465E1,1.6531449E3,3.4491895E2,0E0,0E0,0E0,0E0,0E0,0E0,0E0,0E0,0E0,0E0,0E0,0E0,0E0,0E0,0E0,0E0,0E0,0E0,0E0,0E0,0E0,0E0,0E0,0E0,0E0,0E0,0E0,0E0,0E0,0E0,0E0,0E0],"parents":[2147483647,0,0,1,1,2,2,3,3,4,4,5,5,6,6,7,7,8,8,9,9,10,10,11,11,12,12,13,13,14,14,15,15,16,16,17,17,18,18,19,19,20,20,21,21,22,22,23,23,24,24,25,25,26,26,27,27,28,28,29,29,30,30],"right_children":[2,4,6,8,10,12,14,16,18,20,22,24,26,28,30,32,34,36,38,40,42,44,46,48,50,52,54,56,58,60,62,-1,-1,-1,-1,-1,-1,-1,-1,-1,-1,-1,-1,-1,-1,-1,-1,-1,-1,-1,-1,-1,-1,-1,-1,-1,-1,-1,-1,-1,-1,-1,-1],"split_conditions":[1E0,0E0,0E0,5.056383E-1,2.9510638E-1,2.9510638E-1,2.9510638E-1,3.2659575E-1,-5E-1,-5E-1,5.056383E-1,1E0,5.056383E-1,1E0,5.056383E-1,1.6925532E-1,1E0,6E0,1E0,6E0,1E0,-5E-1,1E0,-5E-1,-5E-1,1E0,1E0,-5E-1,1E0,1E0,1E0,-7.229117E-2,-7.0408374E-2,-6.54433E-2,-3.6687195E-2,-6.906481E-2,-2.7611097E-2,-2.7565805E-2,-2.4218291E-2,-6.3811354E-2,-3.16227E-2,-3.2136586E-2,-5.57383E-4,6.87742E-3,1.6578937E-2,4.5784388E-2,6.6453755E-2,2.4126982E-2,3.6222227E-2,4.39946E-3,1.6950833E-2,6.318378E-2,4.837301E-2,7.985062E-2,7.026732E-2,-3.8165506E-2,-2.5859406E-2,-4.5017388E-2,-2.158069E-2,1.9579042E-2,-3.114514E-3,5.161605E-2,3.4127574E-2],"split_indices":[1,0,0,2,2,2,2,2,8,8,2,13,2,13,2,2,6,4,13,4,5,8,5,8,8,13,13,8,5,13,13,0,0,0,0,0,0,0,0,0,0,0,0,0,0,0,0,0,0,0,0,0,0,0,0,0,0,0,0,0,0,0,0],"split_type":[0,0,0,0,0,0,0,0,0,0,0,0,0,0,0,0,0,0,0,0,0,0,0,0,0,0,0,0,0,0,0,0,0,0,0,0,0,0,0,0,0,0,0,0,0,0,0,0,0,0,0,0,0,0,0,0,0,0,0,0,0,0,0],"sum_hessian":[2.947076E5,1.5918898E5,1.3551861E5,6.7144555E4,9.204444E4,7.361789E4,6.190073E4,5.659839E4,1.0546161E4,2.724282E4,6.4801617E4,2.3217639E4,5.040025E4,1.8495475E4,4.3405254E4,3.2434129E4,2.4164264E4,2.5682307E3,7.9779307E3,6.273837E3,2.0968984E4,4.7946133E4,1.6855482E4,1.1539275E4,1.1678362E4,3.843049E4,1.1969763E4,9.042319E3,9.453154E3,3.2097889E4,1.1307366E4,5.5530293E3,2.68811E4,2.3947107E4,2.1715556E2,9.743114E2,1.5939193E3,4.1002295E3,3.877701E3,1.7220844E3,4.5517524E3,2.0593809E4,3.7517548E2,1.1365147E4,3.658099E4,1.6150237E4,7.052456E2,3.2351665E3,8.304109E3,3.289435E3,8.388927E3,1.9155666E4,1.927482E4,5.861931E3,6.107831E3,2.0548567E3,6.987463E3,9.290738E3,1.6241653E2,1.607549E4,1.6022397E4,5.6428066E3,5.6645596E3],"tree_param":{"num_deleted":"0","num_feature":"15","num_nodes":"63","size_leaf_vector":"1"}},{"base_weights":[7.9319614E-4,-4.3344653E-1,5.1178867E-1,-1.1869951E0,1.1517838E-1,9.244901E-1,2.2063661E-2,-1.3033508E0,-5.6982255E-1,-6.350286E-1,4.3054032E-1,1.061014E0,-2.97445E-2,-6.965933E-1,3.2885915E-1,-1.225674E0,-1.3477981E0,-2.899329E-1,-1.2791264E0,-2.7190882E-1,-1.0922358E0,6.657822E-1,-1.7508325E-1,6.1241287E-1,1.2702845E0,-8.8697255E-1,3.425423E-1,-3.74083E-1,-1.2224007E0,5.338814E-1,-6.7639023E-1,-6.760711E-2,-5.3046763E-2,-6.701863E-2,-6.932522E-2,-6.9129416E-3,-2.850452E-2,-5.6548923E-2,-7.013933E-2,-5.4500867E-3,-1.9678973E-2,-3.9199788E-2,-6.292941E-2,2.632142E-2,5.3379424E-2,4.0401967E-4,-4.7565054E-2,3.8622085E-2,1.0446725E-2,6.742953E-2,4.784664E-2,-3.5025004E-2,-6.4962745E-2,8.80765E-3,4.230468E-2,-9.774225E-3,-2.8347963E-2,-4.3366905E-2,-6.5667756E-2,1.8811299E-2,4.9220946E-2,-4.667961E-2,1.6815009E-3],"categories":[],"categories_nodes":[],"categories_segments":[],"categories_sizes":[],"default_left":[0,0,0,0,0,0,0,0,0,0,0,0,0,0,0,0,0,0,0,0,0,0,0,0,0,0,0,0,0,0,0,0,0,0,0,0,0,0,0,0,0,0,0,0,0,0,0,0,0,0,0,0,0,0,0,0,0,0,0,0,0,0,0],"id":4,"left_children":[1,3,5,7,9,11,13,15,17,19,21,23,25,27,29,31,33,35,37,39,41,43,45,47,49,51,53,55,57,59,61,-1,-1,-1,-1,-1,-1,-1,-1,-1,-1,-1,-1,-1,-1,-1,-1,-1,-1,-1,-1,-1,-1,-1,-1,-1,-1,-1,-1,-1,-1,-1,-1],"loss_changes":[6.5228207E4,6.5698305E4,2.7293879E4,4.8070312E3,2.1757475E4,9.547469E3,1.3617243E4,1.9242188E2,2.1082986E3,4.5181875E3,9.2245E3,6.0178125E3,2.9280374E3,3.1327764E3,8.921129E3,4.2559766E2,7.9726562E0,3.2357092E2,5.305664E1,3.0060913E2,6.164551E2,2.610375E3,2.575511E3,1.3167051E3,1.0710625E3,2.1237817E2,5.3568475E2,3.9438672E2,2.2537207E2,2.5531318E3,1.3392253E3,0E0,0E0,0E0,0E0,0E0,0E0,0E0,0E0,0E0,0E0,0E0,0E0,0E0,0E0,0E0,0E0,0E0,0E0,0E0,0E0,0E0,0E0,0E0,0E0,0E0,0E0,0E0,0E0,0E0,0E0,0E0,0E0],"parents":[2147483647,0,0,1,1,2,2,3,3,4,4,5,5,6,6,7,7,8,8,9,9,10,10,11,11,12,12,13,13,14,14,15,15,16,16,17,17,18,18,19,19,20,20,21,21,22,22,23,23,24,24,25,25,26,26,27,27,28,28,29,29,30,30],"right_children":[2,4,6,8,10,12,14,16,18,20,22,24,26,28,30,32,34,36,38,40,42,44,46,48,50,52,54,56,58,60,62,-1,-1,-1,-1,-1,-1,-1,-1,-1,-1,-1,-1,-1,-1,-1,-1,-1,-1,-1,-1,-1,-1,-1,-1,-1,-1,-1,-1,-1,-1,-1,-1],"split_conditions":[1E0,0E0,0E0,5.056383E-1,2.9510638E-1,2.5E3,2.9510638E-1,1.2E3,1.8E3,1.4E3,1.8E3,2.9510638E-1,2.9510638E-1,1.5E3,2E3,3.2659575E-1,5E0,1.3E3,2E3,1.1E3,1.8E3,5.056383E-1,2.5E3,1.5E3,1.8E3,3E3,5.056383E-1,1.2E3,1.8E3,5.056383E-1,5.056383E-1,-6.760711E-2,-5.3046763E-2,-6.701863E-2,-6.932522E-2,-6.9129416E-3,-2.850452E-2,-5.6548923E-2,-7.013933E-2,-5.4500867E-3,-1.9678973E-2,-3.9199788E-2,-6.292941E-2,2.632142E-2,5.3379424E-2,4.0401967E-4,-4.7565054E-2,3.8622085E-2,1.0446725E-2,6.742953E-2,4.784664E-2,-3.5025004E-2,-6.4962745E-2,8.80765E-3,4.230468E-2,-9.774225E-3,-2.8347963E-2,-4.3366905E-2,-6.5667756E-2,1.8811299E-2,4.9220946E-2,-4.667961E-2,1.6815009E-3],"split_indices":[1,0,0,2,2,3,2,3,3,3,3,2,2,3,3,2,9,3,3,3,3,2,3,3,3,3,2,3,3,2,2,0,0,0,0,0,0,0,0,0,0,0,0,0,0,0,0,0,0,0,0,0,0,0,0,0,0,0,0,0,0,0,0],"split_type":[0,0,0,0,0,0,0,0,0,0,0,0,0,0,0,0,0,0,0,0,0,0,0,0,0,0,0,0,0,0,0,0,0,0,0,0,0,0,0,0,0,0,0,0,0,0,0,0,0,0,0,0,0,0,0,0,0,0,0,0,0,0,0],"sum_hessian":[2.939582E5,1.5891419E5,1.3504398E5,6.695242E4,9.196176E4,7.328447E4,6.1759527E4,5.6330957E4,1.0621464E4,2.7216248E4,6.474551E4,6.4111855E4,9.172609E3,1.8476736E4,4.328279E4,2.0514018E4,3.581694E4,7.6173613E3,3.0041028E3,1.5170007E4,1.2046241E4,4.6632246E4,1.8113268E4,2.0395654E4,4.3716203E4,2.77701E3,6.395599E3,1.1453604E4,7.0231333E3,3.5951113E4,7.3316743E3,1.1600162E4,8.913855E3,3.00868E4,5.73014E3,4.94318E3,2.6741814E3,1.3721742E3,1.6319286E3,6.48715E3,8.682857E3,4.2248164E3,7.821425E3,3.4626074E4,1.200617E4,1.4655887E4,3.4573809E3,1.4602651E4,5.793002E3,3.497265E4,8.743557E3,1.9143666E3,8.626434E2,4.8084263E3,1.5871729E3,5.948332E3,5.505271E3,1.4347878E3,5.5883457E3,2.6633543E4,9.317571E3,5.3818984E3,1.9497756E3],"tree_param":{"num_deleted":"0","num_feature":"15","num_nodes":"63","size_leaf_vector":"1"}},{"base_weights":[-5.0960836E-4,-5.395634E-1,2.4535938E-1,-2.5481987E-1,-9.126035E-1,5.244008E-1,-1.2558961E-1,-3.9168978E-1,-2.0762278E-1,-7.707081E-1,-1.1317041E0,3.9098766E-1,9.248794E-1,-2.7743107E-1,3.302321E-1,-8.185064E-1,-1.9843826E-1,1.5866347E-1,-2.2423576E-1,-5.8994937E-1,-9.5970637E-1,-9.753631E-1,-1.2934601E0,2.1360585E-1,5.443687E-1,7.462208E-1,1.0682989E0,-8.383837E-2,-5.9057903E-1,5.0492364E-1,4.7346544E-2,-3.1359095E-2,-5.6547042E-2,7.539446E-3,-1.071889E-2,-4.6795476E-3,9.791283E-3,-1.1557053E-2,1.1359709E-2,-3.340673E-2,-2.5097523E-2,-3.8711447E-2,-5.809052E-2,-4.4865657E-2,-6.3540265E-2,-6.5003105E-2,-4.5845624E-2,1.6545577E-2,3.8975195E-3,3.0910065E-2,2.085117E-2,2.8461063E-2,4.014362E-2,5.815658E-2,5.0371554E-2,-1.2085146E-2,2.701427E-3,-2.3917845E-2,-5.1396113E-2,1.161369E-2,3.58319E-2,7.5741163E-3,-1.795769E-2],"categories":[],"categories_nodes":[],"categories_segments":[],"categories_sizes":[],"default_left":[0,0,0,0,0,0,0,0,0,0,0,0,0,0,0,0,0,0,0,0,0,0,0,0,0,0,0,0,0,0,0,0,0,0,0,0,0,0,0,0,0,0,0,0,0,0,0,0,0,0,0,0,0,0,0,0,0,0,0,0,0,0,0],"id":5,"left_children":[1,3,5,7,9,11,13,15,17,19,21,23,25,27,29,31,33,35,37,39,41,43,45,47,49,51,53,55,57,59,61,-1,-1,-1,-1,-1,-1,-1,-1,-1,-1,-1,-1,-1,-1,-1,-1,-1,-1,-1,-1,-1,-1,-1,-1,-1,-1,-1,-1,-1,-1,-1,-1],"loss_changes":[3.885703E4,9.754469E3,2.0841234E4,3.363003E2,1.2347617E3,6.1388535E3,5.982683E3,1.101114E3,2.3572937E2,8.23626E2,3.9347852E2,2.344913E3,7.346543E2,3.9306646E3,1.0673018E3,2.4777954E2,5.1214844E1,1.5787014E1,1.1555762E2,8.43999E1,4.4095508E2,1.8183398E2,1.7545898E1,6.3601965E2,4.342207E2,1.2760596E2,9.0416016E1,8.7213135E2,1.215041E3,7.7050024E2,3.4916473E2,0E0,0E0,0E0,0E0,0E0,0E0,0E0,0E0,0E0,0E0,0E0,0E0,0E0,0E0,0E0,0E0,0E0,0E0,0E0,0E0,0E0,0E0,0E0,0E0,0E0,0E0,0E0,0E0,0E0,0E0,0E0,0E0],"parents":[2147483647,0,0,1,1,2,2,3,3,4,4,5,5,6,6,7,7,8,8,9,9,10,10,11,11,12,12,13,13,14,14,15,15,16,16,17,17,18,18,19,19,20,20,21,21,22,22,23,23,24,24,25,25,26,26,27,27,28,28,29,29,30,30],"right_children":[2,4,6,8,10,12,14,16,18,20,22,24,26,28,30,32,34,36,38,40,42,44,46,48,50,52,54,56,58,60,62,-1,-1,-1,-1,-1,-1,-1,-1,-1,-1,-1,-1,-1,-1,-1,-1,-1,-1,-1,-1,-1,-1,-1,-1,-1,-1,-1,-1,-1,-1,-1,-1],"split_conditions":[2.9510638E-1,1.4E3,1.4E3,-5E-1,2E3,5.056383E-1,5.056383E-1,6E0,9E2,0E0,0E0,0E0,0E0,2E3,2E3,0E0,9E2,6E0,1E0,1E0,1.8E3,3E3,1E0,1E0,1.2E3,-5E-1,1.1E3,0E0,3E3,0E0,3E3,-3.1359095E-2,-5.6547042E-2,7.539446E-3,-1.071889E-2,-4.6795476E-3,9.791283E-3,-1.1557053E-2,1.1359709E-2,-3.340673E-2,-2.5097523E-2,-3.8711447E-2,-5.809052E-2,-4.4865657E-2,-6.3540265E-2,-6.5003105E-2,-4.5845624E-2,1.6545577E-2,3.8975195E-3,3.0910065E-2,2.085117E-2,2.8461063E-2,4.014362E-2,5.815658E-2,5.0371554E-2,-1.2085146E-2,2.701427E-3,-2.3917845E-2,-5.1396113E-2,1.161369E-2,3.58319E-2,7.5741163E-3,-1.795769E-2],"split_indices":[2,3,3,8,3,2,2,4,3,0,0,0,0,3,3,0,3,14,5,13,3,3,5,13,3,8,3,0,3,0,3,0,0,0,0,0,0,0,0,0,0,0,0,0,0,0,0,0,0,0,0,0,0,0,0,0,0,0,0,0,0,0,0],"split_type":[0,0,0,0,0,0,0,0,0,0,0,0,0,0,0,0,0,0,0,0,0,0,0,0,0,0,0,0,0,0,0,0,0,0,0,0,0,0,0,0,0,0,0,0,0,0,0,0,0,0,0,0,0,0,0,0,0,0,0,0,0,0,0],"sum_hessian":[2.9317716E5,9.1834445E4,2.013427E5,5.208205E4,3.9752395E4,1.14906016E5,8.6436695E4,1.3351893E4,3.8730156E4,2.4130357E4,1.5622036E4,8.61942E4,2.871181E4,6.483858E4,2.1598113E4,4.1600034E3,9.19189E3,1.679728E3,3.705043E4,1.2336623E4,1.1793734E4,7.9482314E3,7.673804E3,3.997142E4,4.6222785E4,1.2788559E4,1.5923253E4,4.0069027E4,2.4769553E4,1.3351741E4,8.246372E3,2.5823096E3,1.5776938E3,4.005461E2,8.791343E3,2.1512343E2,1.4646046E3,3.6492973E4,5.574569E2,6.528125E3,5.8084976E3,6.152862E3,5.640873E3,6.291043E3,1.6571887E3,7.538668E3,1.3513618E2,2.1434227E4,1.8537193E4,2.9255768E4,1.696702E4,3.1041155E3,9.684443E3,6.2164424E3,9.706811E3,1.8679715E4,2.1389312E4,1.9713582E4,5.055969E3,5.837227E3,7.5145137E3,6.5654062E3,1.6809661E3],"tree_param":{"num_deleted":"0","num_feature":"15","num_nodes":"63","size_leaf_vector":"1"}},{"base_weights":[-1.9270516E-4,-4.16744E-1,4.8909703E-1,-1.1325107E0,1.0320057E-1,8.884058E-1,1.4889476E-2,-1.2366971E0,-6.9692063E-1,3.238737E-1,-4.5878142E-1,1.0411203E0,1.6306517E-1,2.8113475E-1,-6.186628E-1,-1.1321678E0,-1.2662809E0,-4.7461694E-1,-1.2467496E0,1.6887355E-1,8.801331E-1,-6.6649634E-1,2.6359007E-1,9.545767E-1,1.4010047E0,3.9699688E-3,7.792681E-1,1.2403296E-1,8.464722E-1,-8.1209075E-1,6.8131566E-2,-5.6862082E-2,-2.4925828E-2,-6.302967E-2,-6.7476206E-2,-1.7600514E-2,-3.5060376E-2,-5.721412E-2,-6.6509984E-2,1.4524839E-2,-2.8691117E-3,4.8777167E-2,3.8402982E-2,-2.706713E-2,-5.807894E-2,1.9942548E-2,-1.4773144E-2,5.2019883E-2,3.466079E-2,7.218659E-2,5.847844E-2,2.1474259E-2,-8.155947E-3,4.4663202E-2,1.9170409E-2,1.3836877E-2,-2.1955676E-4,4.7956865E-2,3.7626956E-2,-2.8463965E-2,-5.6596696E-2,1.947128E-2,-1.8800939E-2],"categories":[],"categories_nodes":[],"categories_segments":[],"categories_sizes":[],"default_left":[0,0,0,0,0,0,0,0,0,0,0,0,0,0,0,0,0,0,0,0,0,0,0,0,0,0,0,0,0,0,0,0,0,0,0,0,0,0,0,0,0,0,0,0,0,0,0,0,0,0,0,0,0,0,0,0,0,0,0,0,0,0,0],"id":6,"left_children":[1,3,5,7,9,11,13,15,17,19,21,23,25,27,29,31,33,35,37,39,41,43,45,47,49,51,53,55,57,59,61,-1,-1,-1,-1,-1,-1,-1,-1,-1,-1,-1,-1,-1,-1,-1,-1,-1,-1,-1,-1,-1,-1,-1,-1,-1,-1,-1,-1,-1,-1,-1,-1],"loss_changes":[5.9556836E4,5.874105E4,2.5444195E4,3.0128516E3,1.1338303E4,8.080078E3,1.0361693E4,1.6391406E2,1.5663457E3,5.659998E3,3.8682036E3,1.8751289E3,1.2438535E3,3.841236E3,2.414754E3,3.7256836E1,1.7640625E1,2.533252E2,2.9636719E1,1.4129231E3,1.5197559E2,1.2397119E3,4.3552728E2,1.0887344E3,1.1337305E2,7.1721716E2,1.16989136E2,6.638165E2,9.857031E1,1.1005312E3,5.702743E2,0E0,0E0,0E0,0E0,0E0,0E0,0E0,0E0,0E0,0E0,0E0,0E0,0E0,0E0,0E0,0E0,0E0,0E0,0E0,0E0,0E0,0E0,0E0,0E0,0E0,0E0,0E0,0E0,0E0,0E0,0E0,0E0],"parents":[2147483647,0,0,1,1,2,2,3,3,4,4,5,5,6,6,7,7,8,8,9,9,10,10,11,11,12,12,13,13,14,14,15,15,16,16,17,17,18,18,19,19,20,20,21,21,22,22,23,23,24,24,25,25,26,26,27,27,28,28,29,29,30,30],"right_children":[2,4,6,8,10,12,14,16,18,20,22,24,26,28,30,32,34,36,38,40,42,44,46,48,50,52,54,56,58,60,62,-1,-1,-1,-1,-1,-1,-1,-1,-1,-1,-1,-1,-1,-1,-1,-1,-1,-1,-1,-1,-1,-1,-1,-1,-1,-1,-1,-1,-1,-1,-1,-1],"split_conditions":[1E0,0E0,0E0,1E0,1.8E3,2E3,1.8E3,1.1E3,1.8E3,1E0,1E0,1E0,1E0,1E0,1E0,1E0,6E0,1.3E3,2E3,1.3E3,1.2E3,2.5E3,2.5E3,1.5E3,1.8E3,2.5E3,3E3,1.2E3,1.2E3,2.5E3,2.5E3,-5.6862082E-2,-2.4925828E-2,-6.302967E-2,-6.7476206E-2,-1.7600514E-2,-3.5060376E-2,-5.721412E-2,-6.6509984E-2,1.4524839E-2,-2.8691117E-3,4.8777167E-2,3.8402982E-2,-2.706713E-2,-5.807894E-2,1.9942548E-2,-1.4773144E-2,5.2019883E-2,3.466079E-2,7.218659E-2,5.847844E-2,2.1474259E-2,-8.155947E-3,4.4663202E-2,1.9170409E-2,1.3836877E-2,-2.1955676E-4,4.7956865E-2,3.7626956E-2,-2.8463965E-2,-5.6596696E-2,1.947128E-2,-1.8800939E-2],"split_indices":[1,0,0,7,3,3,3,3,3,7,7,7,7,7,7,5,9,3,3,3,3,3,3,3,3,3,3,3,3,3,3,0,0,0,0,0,0,0,0,0,0,0,0,0,0,0,0,0,0,0,0,0,0,0,0,0,0,0,0,0,0,0,0],"split_type":[0,0,0,0,0,0,0,0,0,0,0,0,0,0,0,0,0,0,0,0,0,0,0,0,0,0,0,0,0,0,0,0,0,0,0,0,0,0,0,0,0,0,0,0,0,0,0,0,0,0,0,0,0,0,0,0,0,0,0,0,0,0,0],"sum_hessian":[2.9220916E5,1.5783689E5,1.3437228E5,6.6411836E4,9.142505E4,7.294631E4,6.1425965E4,5.359136E4,1.2820477E4,6.5647805E4,2.577724E4,6.0258715E4,1.2687596E4,4.325089E4,1.8175074E4,1.1831911E4,4.175945E4,9.130939E3,3.6895376E3,5.134287E4,1.4304936E4,2.002062E4,5.756621E3,4.8580547E4,1.167817E4,1.0085044E4,2.6025518E3,3.384673E4,9.404161E3,1.4181076E4,3.9939973E3,1.17369E4,9.501127E1,3.9106516E4,2.6529324E3,5.927084E3,3.2038555E3,1.663873E3,2.0256647E3,3.3392793E4,1.7950082E4,7.7218315E3,6.5831035E3,1.5982779E4,4.0378394E3,4.635558E3,1.1210629E3,3.656901E4,1.2011534E4,9.852947E3,1.8252228E3,2.843231E3,7.2418135E3,2.019392E3,5.8315985E2,1.5461506E4,1.8385225E4,4.2706587E3,5.1335024E3,8.063202E3,6.1178735E3,2.3177327E3,1.6762646E3],"tree_param":{"num_deleted":"0","num_feature":"15","num_nodes":"63","size_leaf_vector":"1"}},{"base_weights":[-9.914319E-4,-5.031292E-1,2.2824724E-1,-2.439046E-1,-8.4528637E-1,4.8090997E-1,-1.0760297E-1,-3.6689082E-1,-2.0155942E-1,-6.808821E-1,-1.016554E0,3.5732645E-1,8.5281926E-1,-2.4409452E-1,3.0324763E-1,-7.623514E-1,-1.8730552E-1,1.3145502E-1,-2.165243E-1,-5.4514205E-1,-8.925823E-1,-7.3024577E-1,-1.1501532E0,1.9090211E-1,5.008378E-1,6.949964E-1,9.792827E-1,-6.768427E-2,-5.2860665E-1,4.607641E-1,4.923205E-2,-2.829878E-2,-5.4464817E-2,8.044227E-3,-1.0157836E-2,2.0852087E-3,9.519795E-3,-1.118193E-2,1.2134866E-2,-3.2668393E-2,-2.5080254E-2,-4.087329E-2,-5.8668226E-2,-3.7095763E-2,-3.5205174E-3,-5.3805586E-2,-6.0264368E-2,1.4685451E-2,3.6341846E-3,3.0102363E-2,2.180649E-2,2.6789049E-2,3.729537E-2,5.3611923E-2,4.6001174E-2,-1.0770326E-2,3.0202048E-3,-2.1344675E-2,-4.6270035E-2,1.0356178E-2,3.2806363E-2,7.7384794E-3,-1.8452818E-2],"categories":[],"categories_nodes":[],"categories_segments":[],"categories_sizes":[],"default_left":[0,0,0,0,0,0,0,0,0,0,0,0,0,0,0,0,0,0,0,0,0,0,0,0,0,0,0,0,0,0,0,0,0,0,0,0,0,0,0,0,0,0,0,0,0,0,0,0,0,0,0,0,0,0,0,0,0,0,0,0,0,0,0],"id":7,"left_children":[1,3,5,7,9,11,13,15,17,19,21,23,25,27,29,31,33,35,37,39,41,43,45,47,49,51,53,55,57,59,61,-1,-1,-1,-1,-1,-1,-1,-1,-1,-1,-1,-1,-1,-1,-1,-1,-1,-1,-1,-1,-1,-1,-1,-1,-1,-1,-1,-1,-1,-1,-1,-1],"loss_changes":[3.3515996E4,8.094172E3,1.6963363E4,2.7028174E2,1.1067031E3,5.242922E3,4.8129136E3,9.441078E2,1.9254822E2,5.761885E2,7.3575E2,2.0449834E3,5.6696484E2,3.2333533E3,8.562731E2,2.6574316E2,5.0520233E1,8.75812E0,1.20835205E2,5.7172363E1,1.6412012E2,4.7080566E1,5.195703E1,4.818534E2,3.0072754E2,1.02061035E2,8.570801E1,7.5249524E2,9.945464E2,6.543562E2,3.6174094E2,0E0,0E0,0E0,0E0,0E0,0E0,0E0,0E0,0E0,0E0,0E0,0E0,0E0,0E0,0E0,0E0,0E0,0E0,0E0,0E0,0E0,0E0,0E0,0E0,0E0,0E0,0E0,0E0,0E0,0E0,0E0,0E0],"parents":[2147483647,0,0,1,1,2,2,3,3,4,4,5,5,6,6,7,7,8,8,9,9,10,10,11,11,12,12,13,13,14,14,15,15,16,16,17,17,18,18,19,19,20,20,21,21,22,22,23,23,24,24,25,25,26,26,27,27,28,28,29,29,30,30],"right_children":[2,4,6,8,10,12,14,16,18,20,22,24,26,28,30,32,34,36,38,40,42,44,46,48,50,52,54,56,58,60,62,-1,-1,-1,-1,-1,-1,-1,-1,-1,-1,-1,-1,-1,-1,-1,-1,-1,-1,-1,-1,-1,-1,-1,-1,-1,-1,-1,-1,-1,-1,-1,-1],"split_conditions":[2.9510638E-1,1.4E3,1.4E3,-5E-1,0E0,5.056383E-1,5.056383E-1,6E0,9E2,2E3,1.8E3,0E0,0E0,2E3,2E3,0E0,9E2,2E0,1E0,-5E-1,3E3,1E0,2E3,1E0,1.1E3,-5E-1,1.1E3,0E0,3E3,0E0,3E3,-2.829878E-2,-5.4464817E-2,8.044227E-3,-1.0157836E-2,2.0852087E-3,9.519795E-3,-1.118193E-2,1.2134866E-2,-3.2668393E-2,-2.5080254E-2,-4.087329E-2,-5.8668226E-2,-3.7095763E-2,-3.5205174E-3,-5.3805586E-2,-6.0264368E-2,1.4685451E-2,3.6341846E-3,3.0102363E-2,2.180649E-2,2.6789049E-2,3.729537E-2,5.3611923E-2,4.6001174E-2,-1.0770326E-2,3.0202048E-3,-2.1344675E-2,-4.6270035E-2,1.0356178E-2,3.2806363E-2,7.7384794E-3,-1.8452818E-2],"split_indices":[2,3,3,8,0,2,2,4,3,3,3,0,0,3,3,0,3,9,5,8,3,5,3,13,3,8,3,0,3,0,3,0,0,0,0,0,0,0,0,0,0,0,0,0,0,0,0,0,0,0,0,0,0,0,0,0,0,0,0,0,0,0,0],"split_type":[0,0,0,0,0,0,0,0,0,0,0,0,0,0,0,0,0,0,0,0,0,0,0,0,0,0,0,0,0,0,0,0,0,0,0,0,0,0,0,0,0,0,0,0,0,0,0,0,0,0,0,0,0,0,0,0,0,0,0,0,0,0,0],"sum_hessian":[2.9116406E5,9.126061E4,1.9990344E5,5.192412E4,3.933649E4,1.1407999E5,8.582345E4,1.3296201E4,3.862792E4,2.0073482E4,1.9263006E4,8.56285E4,2.8451486E4,6.4422043E4,2.1401408E4,4.1510796E3,9.145121E3,1.6605403E3,3.696738E4,1.2233739E4,7.839743E3,6.1312837E3,1.3131723E4,3.9650582E4,4.597792E4,1.2660041E4,1.5791445E4,3.9766652E4,2.4655393E4,1.3209089E4,8.192319E3,2.5954575E3,1.555622E3,3.9748645E2,8.747635E3,6.596493E2,1.0008909E3,3.6404188E4,5.6319403E2,3.504478E3,8.729261E3,6.188751E3,1.6509924E3,6.02445E3,1.06833496E2,5.615232E3,7.5164907E3,2.120633E4,1.8444252E4,1.792728E4,2.8050643E4,3.0709148E3,9.589126E3,6.139835E3,9.65161E3,1.8467924E4,2.1298727E4,1.9626836E4,5.0285566E3,5.7485317E3,7.460557E3,6.5425205E3,1.6497986E3],"tree_param":{"num_deleted":"0","num_feature":"15","num_nodes":"63","size_leaf_vector":"1"}},{"base_weights":[-1.4264899E-3,-4.0108567E-1,4.6815997E-1,-1.0822031E0,9.10014E-2,8.541431E-1,9.218456E-3,-1.1847942E0,-5.4749537E-1,-5.5711323E-1,3.6095476E-1,9.7136587E-1,3.5621326E-2,-6.10121E-1,2.7279627E-1,-1.0293854E0,-1.2006972E0,-3.0109736E-1,-1.1805173E0,-2.581588E-1,-9.400909E-1,5.602361E-1,-1.4898056E-1,5.751038E-1,1.1594472E0,-7.3969746E-1,3.691187E-1,-3.4242642E-1,-1.0576602E0,4.1985765E-1,-7.880071E-1,-6.1214697E-2,-3.9526146E-2,-6.118328E-2,-5.8265623E-2,-2.3859262E-3,-2.1433657E-2,-5.2560426E-2,-6.452675E-2,-8.605237E-3,-2.3005588E-2,-3.3961963E-2,-5.417637E-2,2.2088138E-2,4.545052E-2,3.1712078E-4,-4.019822E-2,3.3873517E-2,7.522501E-3,6.123952E-2,4.50354E-2,-2.8552089E-2,-5.5758268E-2,1.1866363E-2,3.8605973E-2,-8.95798E-3,-2.595669E-2,-3.827211E-2,-5.6637373E-2,1.4445347E-2,4.018301E-2,-5.1102914E-2,-7.418742E-3],"categories":[],"categories_nodes":[],"categories_segments":[],"categories_sizes":[],"default_left":[0,0,0,0,0,0,0,0,0,0,0,0,0,0,0,0,0,0,0,0,0,0,0,0,0,0,0,0,0,0,0,0,0,0,0,0,0,0,0,0,0,0,0,0,0,0,0,0,0,0,0,0,0,0,0,0,0,0,0,0,0,0,0],"id":8,"left_children":[1,3,5,7,9,11,13,15,17,19,21,23,25,27,29,31,33,35,37,39,41,43,45,47,49,51,53,55,57,59,61,-1,-1,-1,-1,-1,-1,-1,-1,-1,-1,-1,-1,-1,-1,-1,-1,-1,-1,-1,-1,-1,-1,-1,-1,-1,-1,-1,-1,-1,-1,-1,-1],"loss_changes":[5.448016E4,5.2562016E4,2.3643068E4,3.607414E3,1.592961E4,6.955875E3,9.953668E3,1.348125E2,1.6513782E3,3.0647979E3,6.531785E3,4.7253633E3,2.3488447E3,2.1802026E3,6.672851E3,2.3763232E2,3.8875E1,2.464112E2,4.0481445E1,2.611742E2,4.38125E2,1.9090381E3,1.837524E3,8.87188E2,7.256094E2,1.7214587E2,3.3706494E2,3.2847986E2,1.4832715E2,1.8876187E3,7.793728E2,0E0,0E0,0E0,0E0,0E0,0E0,0E0,0E0,0E0,0E0,0E0,0E0,0E0,0E0,0E0,0E0,0E0,0E0,0E0,0E0,0E0,0E0,0E0,0E0,0E0,0E0,0E0,0E0,0E0,0E0,0E0,0E0],"parents":[2147483647,0,0,1,1,2,2,3,3,4,4,5,5,6,6,7,7,8,8,9,9,10,10,11,11,12,12,13,13,14,14,15,15,16,16,17,17,18,18,19,19,20,20,21,21,22,22,23,23,24,24,25,25,26,26,27,27,28,28,29,29,30,30],"right_children":[2,4,6,8,10,12,14,16,18,20,22,24,26,28,30,32,34,36,38,40,42,44,46,48,50,52,54,56,58,60,62,-1,-1,-1,-1,-1,-1,-1,-1,-1,-1,-1,-1,-1,-1,-1,-1,-1,-1,-1,-1,-1,-1,-1,-1,-1,-1,-1,-1,-1,-1,-1,-1],"split_conditions":[1E0,0E0,0E0,5.056383E-1,2.9510638E-1,2.5E3,2.9510638E-1,1E3,1.8E3,1.4E3,1.8E3,2.9510638E-1,2.9510638E-1,1.5E3,2.5E3,3.0787235E-1,3.3148935E-1,1.1E3,2E3,1.2E3,1.8E3,5.056383E-1,2.5E3,1.8E3,1.8E3,3E3,5.056383E-1,1.2E3,1.8E3,5.056383E-1,5.056383E-1,-6.1214697E-2,-3.9526146E-2,-6.118328E-2,-5.8265623E-2,-2.3859262E-3,-2.1433657E-2,-5.2560426E-2,-6.452675E-2,-8.605237E-3,-2.3005588E-2,-3.3961963E-2,-5.417637E-2,2.2088138E-2,4.545052E-2,3.1712078E-4,-4.019822E-2,3.3873517E-2,7.522501E-3,6.123952E-2,4.50354E-2,-2.8552089E-2,-5.5758268E-2,1.1866363E-2,3.8605973E-2,-8.95798E-3,-2.595669E-2,-3.827211E-2,-5.6637373E-2,1.4445347E-2,4.018301E-2,-5.1102914E-2,-7.418742E-3],"split_indices":[1,0,0,2,2,3,2,3,3,3,3,2,2,3,3,2,2,3,3,3,3,2,3,3,3,3,2,3,3,2,2,0,0,0,0,0,0,0,0,0,0,0,0,0,0,0,0,0,0,0,0,0,0,0,0,0,0,0,0,0,0,0,0],"split_type":[0,0,0,0,0,0,0,0,0,0,0,0,0,0,0,0,0,0,0,0,0,0,0,0,0,0,0,0,0,0,0,0,0,0,0,0,0,0,0,0,0,0,0,0,0,0,0,0,0,0,0,0,0,0,0,0,0,0,0,0,0,0,0],"sum_hessian":[2.9028844E5,1.5682069E5,1.3346775E5,6.577616E4,9.104453E4,7.249565E4,6.0972105E4,5.518636E4,1.0589793E4,2.677074E4,6.427379E4,6.341367E4,9.081976E3,1.8201492E4,4.2770613E4,5.1302656E3,5.0056098E4,7.6240015E3,2.9657915E3,1.5035811E4,1.1734931E4,4.621369E4,1.8060098E4,2.0412424E4,4.3001246E4,2.7310823E3,6.3508936E3,1.1390472E4,6.811021E3,3.756382E4,5.206792E3,2.8223281E3,2.3079375E3,3.032941E4,1.9726686E4,2.5539282E3,5.070073E3,1.3691217E3,1.5966699E3,1.0545014E4,4.490797E3,4.165897E3,7.5690337E3,3.449802E4,1.171567E4,1.459902E4,3.4610771E3,1.6446871E4,3.9655522E3,3.4327527E4,8.67372E3,1.8866578E3,8.444245E2,4.787316E3,1.5635774E3,5.921837E3,5.468635E3,1.3951466E3,5.415874E3,2.8009398E4,9.554421E3,3.8113477E3,1.3954443E3],"tree_param":{"num_deleted":"0","num_feature":"15","num_nodes":"63","size_leaf_vector":"1"}},{"base_weights":[6.9207024E-5,-3.7956378E-1,4.4559753E-1,-5.100357E-1,1.1637289E-1,6.534606E-1,-4.2247035E-2,-3.7200725E-1,-8.430192E-1,2.834602E-1,-2.9573318E-1,5.5507165E-1,1.0435951E0,1.9957782E-1,-3.730754E-1,-2.6364148E-1,-4.998698E-1,-7.7828586E-1,-1.0872568E0,2.6115078E-1,1.1367297E0,-1.9174339E-1,-7.093634E-1,6.748124E-1,4.5559096E-1,9.1637594E-1,1.0863919E0,6.4018376E-2,7.106577E-1,-5.19077E-1,1.6829641E-1,-2.1031566E-2,-1.0518858E-2,-2.5541348E-2,1.0235606E-2,-3.9389912E-2,-7.7266656E-3,-5.08025E-2,-5.8036137E-2,1.8514555E-2,6.59104E-3,5.886689E-2,4.4195376E-2,-1.0964019E-2,4.151243E-2,-2.8256414E-2,-4.305542E-2,3.1836893E-2,4.4985313E-2,2.075925E-2,3.4674328E-2,3.2295246E-2,5.3381976E-2,5.7623256E-2,5.1650275E-2,8.6785806E-4,1.672019E-2,2.8695641E-2,3.7830774E-2,-2.0436252E-2,-3.799484E-2,1.5560185E-2,-7.47386E-3],"categories":[],"categories_nodes":[],"categories_segments":[],"categories_sizes":[],"default_left":[0,0,0,0,0,0,0,0,0,0,0,0,0,0,0,0,0,0,0,0,0,0,0,0,0,0,0,0,0,0,0,0,0,0,0,0,0,0,0,0,0,0,0,0,0,0,0,0,0,0,0,0,0,0,0,0,0,0,0,0,0,0,0],"id":9,"left_children":[1,3,5,7,9,11,13,15,17,19,21,23,25,27,29,31,33,35,37,39,41,43,45,47,49,51,53,55,57,59,61,-1,-1,-1,-1,-1,-1,-1,-1,-1,-1,-1,-1,-1,-1,-1,-1,-1,-1,-1,-1,-1,-1,-1,-1,-1,-1,-1,-1,-1,-1,-1,-1],"loss_changes":[4.8789086E4,1.0077836E4,1.3457695E4,5.6668926E3,2.233875E3,3.5713125E3,3.1723892E3,1.207666E3,5.70166E2,4.3893604E2,4.023183E2,8.848457E2,1.0074219E2,1.5869902E3,1.323699E3,3.9441992E2,3.0886426E2,1.6927344E2,3.8072266E1,3.174319E2,4.6828003E0,2.1065732E2,4.0460815E1,2.8797852E2,3.898213E2,1.9238696E2,4.7914062E1,2.2840741E2,2.9568115E1,3.5003662E2,1.6161981E2,0E0,0E0,0E0,0E0,0E0,0E0,0E0,0E0,0E0,0E0,0E0,0E0,0E0,0E0,0E0,0E0,0E0,0E0,0E0,0E0,0E0,0E0,0E0,0E0,0E0,0E0,0E0,0E0,0E0,0E0,0E0,0E0],"parents":[2147483647,0,0,1,1,2,2,3,3,4,4,5,5,6,6,7,7,8,8,9,9,10,10,11,11,12,12,13,13,14,14,15,15,16,16,17,17,18,18,19,19,20,20,21,21,22,22,23,23,24,24,25,25,26,26,27,27,28,28,29,29,30,30],"right_children":[2,4,6,8,10,12,14,16,18,20,22,24,26,28,30,32,34,36,38,40,42,44,46,48,50,52,54,56,58,60,62,-1,-1,-1,-1,-1,-1,-1,-1,-1,-1,-1,-1,-1,-1,-1,-1,-1,-1,-1,-1,-1,-1,-1,-1,-1,-1,-1,-1,-1,-1,-1,-1],"split_conditions":[1E0,1E0,1.8E3,1.8E3,1.8E3,1E0,2.5E3,1.2E3,2.5E3,1E0,2.5E3,1.2E3,-5E-1,1E0,1E0,-5E-1,1E0,1E0,3E3,1.2E3,1.5E3,1E0,3E3,1E0,1E0,2.3E1,1.2E3,1E0,-5E-1,3E3,3E3,-2.1031566E-2,-1.0518858E-2,-2.5541348E-2,1.0235606E-2,-3.9389912E-2,-7.7266656E-3,-5.08025E-2,-5.8036137E-2,1.8514555E-2,6.59104E-3,5.886689E-2,4.4195376E-2,-1.0964019E-2,4.151243E-2,-2.8256414E-2,-4.305542E-2,3.1836893E-2,4.4985313E-2,2.075925E-2,3.4674328E-2,3.2295246E-2,5.3381976E-2,5.7623256E-2,5.1650275E-2,8.6785806E-4,1.672019E-2,2.8695641E-2,3.7830774E-2,-2.0436252E-2,-3.799484E-2,1.5560185E-2,-7.47386E-3],"split_indices":[1,7,3,3,3,7,3,3,3,5,3,3,8,7,7,8,5,5,3,3,3,5,3,11,11,14,3,11,8,3,3,0,0,0,0,0,0,0,0,0,0,0,0,0,0,0,0,0,0,0,0,0,0,0,0,0,0,0,0,0,0,0,0],"split_type":[0,0,0,0,0,0,0,0,0,0,0,0,0,0,0,0,0,0,0,0,0,0,0,0,0,0,0,0,0,0,0,0,0,0,0,0,0,0,0,0,0,0,0,0,0,0,0,0,0,0,0,0,0,0,0,0,0,0,0,0,0,0,0],"sum_hessian":[2.8845634E5,1.5574584E5,1.327105E5,1.2330635E5,3.2439488E4,9.305922E4,3.9651273E4,8.71737E4,3.6132645E4,2.3081672E4,9.357816E3,7.431936E4,1.8739861E4,2.2907074E4,1.67442E4,4.7186477E4,3.9987227E4,2.8566355E4,7.566289E3,2.2495074E4,5.865979E2,7.479312E3,1.8785042E3,3.37221E4,4.0597258E4,4.724044E3,1.4015817E4,1.810604E4,4.801034E3,1.3187827E4,3.556372E3,1.1951494E4,3.5234984E4,3.9375336E4,6.118915E2,2.8136812E4,4.2954193E2,3.8511958E3,3.715093E3,1.219826E4,1.0296814E4,5.0161148E2,8.498645E1,7.2840103E3,1.9530168E2,9.6608563E2,9.124185E2,2.8843553E4,4.8785483E3,3.4705973E4,5.8912856E3,1.6966888E3,3.0273552E3,6.252702E3,7.7631147E3,1.54426045E4,2.6634355E3,1.2119492E3,3.5890852E3,9.046012E3,4.1418154E3,2.453387E3,1.1029852E3],"tree_param":{"num_deleted":"0","num_feature":"15","num_nodes":"63","size_leaf_vector":"1"}},{"base_weights":[-2.8248093E-4,-3.637787E-1,4.264743E-1,-1.0233871E0,1.0837557E-1,7.9845744E-1,-1.2096653E-2,-1.1131147E0,-6.545428E-1,2.9458562E-1,-3.7029466E-1,9.082639E-1,4.017049E-2,2.1071091E-1,-5.45379E-1,-9.557358E-1,-1.1294382E0,-4.1886127E-1,-1.0251039E0,1.6788799E-1,7.541028E-1,-5.446053E-1,2.3052214E-1,8.2890946E-1,1.2454557E0,-1.0450772E-1,5.993991E-1,8.028852E-2,6.9528335E-1,-7.1052694E-1,3.1325996E-2,-5.399098E-2,-4.5355536E-2,-5.5961676E-2,-6.0032513E-2,-1.2630522E-2,-2.627699E-2,-3.8353004E-2,-5.5941373E-2,1.3584228E-2,-1.3082698E-3,4.2071555E-2,3.260348E-2,-2.1608952E-2,-4.9778327E-2,1.7720949E-2,-1.4582723E-2,4.6312656E-2,2.963386E-2,6.494951E-2,5.2113008E-2,1.4999842E-3,-2.051986E-2,3.5572607E-2,1.7303957E-2,8.560781E-3,-4.629159E-3,3.8326748E-2,2.8200695E-2,-2.5310624E-2,-4.9254104E-2,1.3539118E-2,-1.4764099E-2],"categories":[],"categories_nodes":[],"categories_segments":[],"categories_sizes":[],"default_left":[0,0,0,0,0,0,0,0,0,0,0,0,0,0,0,0,0,0,0,0,0,0,0,0,0,0,0,0,0,0,0,0,0,0,0,0,0,0,0,0,0,0,0,0,0,0,0,0,0,0,0,0,0,0,0,0,0,0,0,0,0,0,0],"id":10,"left_children":[1,3,5,7,9,11,13,15,17,19,21,23,25,27,29,31,33,35,37,39,41,43,45,47,49,51,53,55,57,59,61,-1,-1,-1,-1,-1,-1,-1,-1,-1,-1,-1,-1,-1,-1,-1,-1,-1,-1,-1,-1,-1,-1,-1,-1,-1,-1,-1,-1,-1,-1,-1,-1],"loss_changes":[4.4626883E4,4.8384133E4,2.1588107E4,2.144039E3,8.0707095E3,5.9615625E3,7.215967E3,1.3252344E2,1.1071895E3,3.7949663E3,2.6559827E3,1.6721445E3,7.329817E2,2.7069292E3,1.7045718E3,2.8328125E1,3.260547E1,1.3732178E2,1.18106445E2,1.0292966E3,1.24779785E2,9.9597656E2,3.691051E2,1.163543E3,1.2785742E2,2.9616858E2,5.2478027E1,5.305564E2,8.4350586E1,7.797344E2,3.1174008E2,0E0,0E0,0E0,0E0,0E0,0E0,0E0,0E0,0E0,0E0,0E0,0E0,0E0,0E0,0E0,0E0,0E0,0E0,0E0,0E0,0E0,0E0,0E0,0E0,0E0,0E0,0E0,0E0,0E0,0E0,0E0,0E0],"parents":[2147483647,0,0,1,1,2,2,3,3,4,4,5,5,6,6,7,7,8,8,9,9,10,10,11,11,12,12,13,13,14,14,15,15,16,16,17,17,18,18,19,19,20,20,21,21,22,22,23,23,24,24,25,25,26,26,27,27,28,28,29,29,30,30],"right_children":[2,4,6,8,10,12,14,16,18,20,22,24,26,28,30,32,34,36,38,40,42,44,46,48,50,52,54,56,58,60,62,-1,-1,-1,-1,-1,-1,-1,-1,-1,-1,-1,-1,-1,-1,-1,-1,-1,-1,-1,-1,-1,-1,-1,-1,-1,-1,-1,-1,-1,-1,-1,-1],"split_conditions":[1E0,0E0,0E0,1E0,1.8E3,2.5E3,1.8E3,1E3,1.5E3,1E0,1E0,1E0,1E0,1E0,1E0,-5E-1,5E0,1.1E3,1.8E3,1.3E3,1.2E3,2.5E3,2.5E3,1.5E3,1.8E3,3E3,3E3,1.3E3,1.3E3,2.5E3,2.5E3,-5.399098E-2,-4.5355536E-2,-5.5961676E-2,-6.0032513E-2,-1.2630522E-2,-2.627699E-2,-3.8353004E-2,-5.5941373E-2,1.3584228E-2,-1.3082698E-3,4.2071555E-2,3.260348E-2,-2.1608952E-2,-4.9778327E-2,1.7720949E-2,-1.4582723E-2,4.6312656E-2,2.963386E-2,6.494951E-2,5.2113008E-2,1.4999842E-3,-2.051986E-2,3.5572607E-2,1.7303957E-2,8.560781E-3,-4.629159E-3,3.8326748E-2,2.8200695E-2,-2.5310624E-2,-4.9254104E-2,1.3539118E-2,-1.4764099E-2],"split_indices":[1,0,0,7,3,3,3,3,3,7,7,7,7,7,7,8,9,3,3,3,3,3,3,3,3,3,3,3,3,3,3,0,0,0,0,0,0,0,0,0,0,0,0,0,0,0,0,0,0,0,0,0,0,0,0,0,0,0,0,0,0,0,0],"split_type":[0,0,0,0,0,0,0,0,0,0,0,0,0,0,0,0,0,0,0,0,0,0,0,0,0,0,0,0,0,0,0,0,0,0,0,0,0,0,0,0,0,0,0,0,0,0,0,0,0,0,0,0,0,0,0,0,0,0,0,0,0,0,0],"sum_hessian":[2.876822E5,1.5535594E5,1.3232625E5,6.4811703E4,9.054424E4,7.1598125E4,6.0728125E4,5.212816E4,1.2683544E4,6.5186375E4,2.5357865E4,6.2541266E4,9.056861E3,4.283286E4,1.7895268E4,4.905421E3,4.722274E4,7.7543154E3,4.9292285E3,5.10991E4,1.4087273E4,1.9655598E4,5.7022676E3,5.0630113E4,1.1911151E4,7.1959185E3,1.860943E3,3.3750438E4,9.082422E3,1.3911439E4,3.9838276E3,1.3739451E3,3.531476E3,4.132119E4,5.9015483E3,3.032705E3,4.7216104E3,1.3162998E3,3.612929E3,3.3291824E4,1.7807277E4,7.5857944E3,6.5014795E3,1.5735145E4,3.9204531E3,4.60919E3,1.0930773E3,3.585274E4,1.4777379E4,9.422297E3,2.4888545E3,4.9985806E3,2.1973381E3,1.2885736E3,5.723693E2,2.2117604E4,1.1632833E4,5.8830713E3,3.1993506E3,7.9779873E3,5.9334526E3,2.2988752E3,1.6849524E3],"tree_param":{"num_deleted":"0","num_feature":"15","num_nodes":"63","size_leaf_vector":"1"}},{"base_weights":[2.2465158E-3,-4.471534E-1,2.0635305E-1,-2.3219863E-1,-7.3634326E-1,4.2217508E-1,-7.893002E-2,-3.4049913E-1,-1.9502227E-1,-6.2394273E-1,-9.1453433E-1,3.2110202E-1,7.350496E-1,-1.927346E-1,2.6456362E-1,-7.3628813E-1,-1.684742E-1,-5.1388193E-2,-2.2342098E-1,-5.62851E-1,-6.881658E-1,-8.8215E-1,-1.0340667E0,1.8300007E-1,3.6813727E-1,7.2377646E-1,1.2110163E0,-4.4143494E-2,-4.3436852E-1,3.135913E-1,-3.092552E-1,-1.7819514E-2,-3.766152E-2,6.824481E-3,-9.119847E-3,7.9771085E-3,-2.3678046E-2,-1.1415689E-2,5.006321E-3,-2.0959446E-2,-3.484188E-2,-4.3770984E-2,-2.142948E-2,-4.6909783E-2,-4.193827E-2,-5.5140506E-2,-5.0539047E-2,-1.3581966E-2,1.9124402E-2,1.1967949E-2,2.08954E-2,2.9340027E-2,3.8417894E-2,5.3096782E-2,6.2036645E-2,-9.882535E-3,3.9775233E-4,-1.7135283E-2,-3.993915E-2,1.956181E-2,7.9499325E-3,-3.278414E-2,-1.0383501E-2],"categories":[],"categories_nodes":[],"categories_segments":[],"categories_sizes":[],"default_left":[0,0,0,0,0,0,0,0,0,0,0,0,0,0,0,0,0,0,0,0,0,0,0,0,0,0,0,0,0,0,0,0,0,0,0,0,0,0,0,0,0,0,0,0,0,0,0,0,0,0,0,0,0,0,0,0,0,0,0,0,0,0,0],"id":11,"left_children":[1,3,5,7,9,11,13,15,17,19,21,23,25,27,29,31,33,35,37,39,41,43,45,47,49,51,53,55,57,59,61,-1,-1,-1,-1,-1,-1,-1,-1,-1,-1,-1,-1,-1,-1,-1,-1,-1,-1,-1,-1,-1,-1,-1,-1,-1,-1,-1,-1,-1,-1,-1,-1],"loss_changes":[2.6241979E4,5.5541973E3,1.2113365E4,2.0624707E2,7.622676E2,3.5416035E3,3.3124243E3,8.9146106E2,1.5562317E2,9.112207E1,5.5836914E1,5.49791E2,1.4557715E2,2.2851975E3,5.9336414E2,2.5128174E1,3.8799255E1,5.61273E2,5.0476196E1,2.3019434E2,5.528423E2,2.7164062E1,3.5791016E0,1.951064E3,4.0457324E2,1.6252051E2,1.1154175E0,3.152304E2,8.0913916E2,2.330813E2,5.819345E1,0E0,0E0,0E0,0E0,0E0,0E0,0E0,0E0,0E0,0E0,0E0,0E0,0E0,0E0,0E0,0E0,0E0,0E0,0E0,0E0,0E0,0E0,0E0,0E0,0E0,0E0,0E0,0E0,0E0,0E0,0E0,0E0],"parents":[2147483647,0,0,1,1,2,2,3,3,4,4,5,5,6,6,7,7,8,8,9,9,10,10,11,11,12,12,13,13,14,14,15,15,16,16,17,17,18,18,19,19,20,20,21,21,22,22,23,23,24,24,25,25,26,26,27,27,28,28,29,29,30,30],"right_children":[2,4,6,8,10,12,14,16,18,20,22,24,26,28,30,32,34,36,38,40,42,44,46,48,50,52,54,56,58,60,62,-1,-1,-1,-1,-1,-1,-1,-1,-1,-1,-1,-1,-1,-1,-1,-1,-1,-1,-1,-1,-1,-1,-1,-1,-1,-1,-1,-1,-1,-1,-1,-1],"split_conditions":[2.9510638E-1,1.4E3,1.4E3,-5E-1,2E3,5.056383E-1,5.056383E-1,1.52E2,1E3,1.8E3,3E3,-5E-1,1E0,2E3,3E3,9E2,9E2,1E0,1E0,1E0,1E0,2.3E1,1.6925532E-1,6E0,3.2659575E-1,-5E-1,5.0840425E-1,-5E-1,3E3,2E3,1E0,-1.7819514E-2,-3.766152E-2,6.824481E-3,-9.119847E-3,7.9771085E-3,-2.3678046E-2,-1.1415689E-2,5.006321E-3,-2.0959446E-2,-3.484188E-2,-4.3770984E-2,-2.142948E-2,-4.6909783E-2,-4.193827E-2,-5.5140506E-2,-5.0539047E-2,-1.3581966E-2,1.9124402E-2,1.1967949E-2,2.08954E-2,2.9340027E-2,3.8417894E-2,5.3096782E-2,6.2036645E-2,-9.882535E-3,3.9775233E-4,-1.7135283E-2,-3.993915E-2,1.956181E-2,7.9499325E-3,-3.278414E-2,-1.0383501E-2],"split_indices":[2,3,3,8,3,2,2,10,3,3,3,8,5,3,3,3,3,13,5,13,13,14,2,4,2,8,2,8,3,3,13,0,0,0,0,0,0,0,0,0,0,0,0,0,0,0,0,0,0,0,0,0,0,0,0,0,0,0,0,0,0,0,0],"split_type":[0,0,0,0,0,0,0,0,0,0,0,0,0,0,0,0,0,0,0,0,0,0,0,0,0,0,0,0,0,0,0,0,0,0,0,0,0,0,0,0,0,0,0,0,0,0,0,0,0,0,0,0,0,0,0,0,0,0,0,0,0,0,0],"sum_hessian":[2.860907E5,8.935277E4,1.9673792E5,5.1256305E4,3.809647E4,1.1200434E5,8.473357E4,1.3095477E4,3.8160832E4,2.336417E4,1.4732298E4,8.465832E4,2.7346027E4,6.364711E4,2.1086465E4,3.9661372E3,9.129339E3,6.3005786E3,3.1860252E4,1.19803E4,1.138387E4,1.1599698E4,3.1325989E3,2.1509867E4,6.3148453E4,2.6716244E4,6.2978265E2,3.9412426E4,2.4234682E4,1.9427252E4,1.6592123E3,1.706122E2,3.7955251E3,3.9785495E2,8.731484E3,4.201719E3,2.0988596E3,3.138625E4,4.7400113E2,5.783958E3,6.1963423E3,6.611472E3,4.772398E3,5.050413E3,6.5492856E3,7.7863495E2,2.353964E3,6.559548E3,1.4950318E4,1.7605033E4,4.5543418E4,6.564547E3,2.0151697E4,1.1194734E2,5.178353E2,9.986442E3,2.9425984E4,1.9365896E4,4.8687856E3,1.2930511E4,6.4967407E3,3.7463638E2,1.2845759E3],"tree_param":{"num_deleted":"0","num_feature":"15","num_nodes":"63","size_leaf_vector":"1"}},{"base_weights":[-6.3264044E-5,-3.460766E-1,4.0660456E-1,-9.7973365E-1,1.03467226E-1,7.641614E-1,-1.4142441E-2,-1.0672946E0,-5.3292483E-1,-4.7764236E-1,3.4487286E-1,3.6865872E-1,9.538174E-1,-5.724581E-1,2.2288835E-1,-9.327768E-1,-1.0812584E0,-3.227697E-1,-1.0775566E0,-2.4123539E-1,-8.6720765E-1,5.13929E-1,-8.619648E-2,5.034864E-1,-6.5627646E-1,1.0423739E0,3.7490237E-1,-3.4093776E-1,-9.718542E-1,3.4882966E-1,-6.859013E-1,-5.7089157E-2,-3.489317E-2,-5.3257447E-2,-5.8261454E-2,-9.02106E-3,-2.4828307E-2,-4.8726913E-2,-5.822568E-2,-6.7653335E-3,-2.1488637E-2,-3.0938825E-2,-4.805625E-2,2.1022988E-2,3.9841E-2,2.6230824E-3,-3.4278523E-2,3.0929223E-2,1.0906292E-2,-2.5768315E-2,-4.8387695E-2,4.8923682E-2,6.300457E-2,1.3967812E-2,3.3712994E-2,-1.0171003E-2,-2.4454588E-2,-3.6931194E-2,-5.1658608E-2,1.182318E-2,3.4392137E-2,-4.440506E-2,-7.341675E-3],"categories":[],"categories_nodes":[],"categories_segments":[],"categories_sizes":[],"default_left":[0,0,0,0,0,0,0,0,0,0,0,0,0,0,0,0,0,0,0,0,0,0,0,0,0,0,0,0,0,0,0,0,0,0,0,0,0,0,0,0,0,0,0,0,0,0,0,0,0,0,0,0,0,0,0,0,0,0,0,0,0,0,0],"id":12,"left_children":[1,3,5,7,9,11,13,15,17,19,21,23,25,27,29,31,33,35,37,39,41,43,45,47,49,51,53,55,57,59,61,-1,-1,-1,-1,-1,-1,-1,-1,-1,-1,-1,-1,-1,-1,-1,-1,-1,-1,-1,-1,-1,-1,-1,-1,-1,-1,-1,-1,-1,-1,-1,-1],"loss_changes":[4.017214E4,4.393895E4,1.9744295E4,2.5036992E3,1.2658499E4,5.321328E3,7.9794053E3,9.922656E1,1.2003481E3,2.438709E3,4.645976E3,3.1783342E3,2.4578164E3,1.6611108E3,4.8446104E3,2.465127E2,6.3996094E1,1.871706E2,2.4701416E1,3.2908014E2,2.3254004E2,1.2103486E3,1.4926951E3,6.67313E2,1.1666272E2,5.7702344E2,1.8172296E2,2.316195E2,9.327588E1,1.4158608E3,5.613115E2,0E0,0E0,0E0,0E0,0E0,0E0,0E0,0E0,0E0,0E0,0E0,0E0,0E0,0E0,0E0,0E0,0E0,0E0,0E0,0E0,0E0,0E0,0E0,0E0,0E0,0E0,0E0,0E0,0E0,0E0,0E0,0E0],"parents":[2147483647,0,0,1,1,2,2,3,3,4,4,5,5,6,6,7,7,8,8,9,9,10,10,11,11,12,12,13,13,14,14,15,15,16,16,17,17,18,18,19,19,20,20,21,21,22,22,23,23,24,24,25,25,26,26,27,27,28,28,29,29,30,30],"right_children":[2,4,6,8,10,12,14,16,18,20,22,24,26,28,30,32,34,36,38,40,42,44,46,48,50,52,54,56,58,60,62,-1,-1,-1,-1,-1,-1,-1,-1,-1,-1,-1,-1,-1,-1,-1,-1,-1,-1,-1,-1,-1,-1,-1,-1,-1,-1,-1,-1,-1,-1,-1,-1],"split_conditions":[1E0,0E0,0E0,5.056383E-1,2.9510638E-1,2.9510638E-1,2.9510638E-1,1E3,1.8E3,1.5E3,1.8E3,2.5E3,2.5E3,1.5E3,2.5E3,3.0723405E-1,5E0,1.2E3,2E3,1.2E3,1.8E3,5.056383E-1,2.5E3,1.5E3,3E3,5.056383E-1,5.056383E-1,1.2E3,1.8E3,5.056383E-1,5.056383E-1,-5.7089157E-2,-3.489317E-2,-5.3257447E-2,-5.8261454E-2,-9.02106E-3,-2.4828307E-2,-4.8726913E-2,-5.822568E-2,-6.7653335E-3,-2.1488637E-2,-3.0938825E-2,-4.805625E-2,2.1022988E-2,3.9841E-2,2.6230824E-3,-3.4278523E-2,3.0929223E-2,1.0906292E-2,-2.5768315E-2,-4.8387695E-2,4.8923682E-2,6.300457E-2,1.3967812E-2,3.3712994E-2,-1.0171003E-2,-2.4454588E-2,-3.6931194E-2,-5.1658608E-2,1.182318E-2,3.4392137E-2,-4.440506E-2,-7.341675E-3],"split_indices":[1,0,0,2,2,2,2,3,3,3,3,3,3,3,3,2,9,3,3,3,3,2,3,3,3,2,2,3,3,2,2,0,0,0,0,0,0,0,0,0,0,0,0,0,0,0,0,0,0,0,0,0,0,0,0,0,0,0,0,0,0,0,0],"split_type":[0,0,0,0,0,0,0,0,0,0,0,0,0,0,0,0,0,0,0,0,0,0,0,0,0,0,0,0,0,0,0,0,0,0,0,0,0,0,0,0,0,0,0,0,0,0,0,0,0,0,0,0,0,0,0,0,0,0,0,0,0,0,0],"sum_hessian":[2.8548872E5,1.5424758E5,1.3124116E5,6.4014504E4,9.023307E4,7.094793E4,6.0293227E4,5.3523727E4,1.0490776E4,2.6482686E4,6.3750387E4,2.2996184E4,4.7951746E4,1.7968373E4,4.232485E4,5.0413E3,4.8482426E4,7.5712285E3,2.919548E3,1.6482406E4,1.000028E4,4.5791832E4,1.7958555E4,2.0323354E4,2.6728293E3,4.158886E4,6.3628853E3,1.1376171E4,6.592202E3,3.7174016E4,5.1508374E3,2.665283E3,2.376017E3,4.069202E4,7.790408E3,4.16373E3,3.4074985E3,1.3430314E3,1.5765168E3,1.0554715E4,5.9276914E3,2.7459856E3,7.254295E3,3.442173E4,1.1370102E4,1.4585262E4,3.3732925E3,1.448094E4,5.842414E3,1.8425253E3,8.303041E2,3.2157203E4,9.431656E3,4.8252637E3,1.5376218E3,5.9015713E3,5.4746E3,1.3756656E3,5.2165366E3,2.7921562E4,9.252452E3,3.7451606E3,1.4056768E3],"tree_param":{"num_deleted":"0","num_feature":"15","num_nodes":"63","size_leaf_vector":"1"}},{"base_weights":[1.2645519E-3,-3.298998E-1,3.8966912E-1,-9.381052E-1,9.832411E-2,7.3324746E-1,-1.3013035E-2,-1.0267987E0,-4.9156642E-1,-4.5776993E-1,3.2823148E-1,3.5010582E-1,9.17822E-1,-5.436414E-1,2.1290681E-1,-1.0627129E0,-9.7784483E-1,-2.9123566E-1,-1.0163558E0,-2.0459674E-1,-7.9540795E-1,4.8874438E-1,-7.804728E-2,5.05404E-1,-4.418506E-1,1.0236228E0,4.4870603E-1,-3.1974858E-1,-9.334152E-1,4.246043E-1,-2.9058346E-1,-5.4483622E-2,-5.0136488E-2,-3.8441233E-2,-5.20252E-2,-7.6554143E-3,-2.2873899E-2,-4.537754E-2,-5.543811E-2,-6.601983E-3,-1.8867433E-2,-2.842226E-2,-4.635253E-2,1.9762931E-2,3.8708184E-2,-1.2167866E-2,1.9088456E-2,2.9207323E-2,1.3115306E-2,-7.855638E-4,-3.0726431E-2,4.80902E-2,6.189688E-2,2.703458E-2,6.803166E-3,-6.655232E-3,-2.066963E-2,-3.5072464E-2,-4.9804937E-2,1.629704E-2,3.6486533E-2,-2.0526578E-3,-3.2413993E-2],"categories":[],"categories_nodes":[],"categories_segments":[],"categories_sizes":[],"default_left":[0,0,0,0,0,0,0,0,0,0,0,0,0,0,0,0,0,0,0,0,0,0,0,0,0,0,0,0,0,0,0,0,0,0,0,0,0,0,0,0,0,0,0,0,0,0,0,0,0,0,0,0,0,0,0,0,0,0,0,0,0,0,0],"id":13,"left_children":[1,3,5,7,9,11,13,15,17,19,21,23,25,27,29,31,33,35,37,39,41,43,45,47,49,51,53,55,57,59,61,-1,-1,-1,-1,-1,-1,-1,-1,-1,-1,-1,-1,-1,-1,-1,-1,-1,-1,-1,-1,-1,-1,-1,-1,-1,-1,-1,-1,-1,-1,-1,-1],"loss_changes":[3.6463656E4,3.9853547E4,1.8050701E4,2.50325E3,1.1480626E4,4.978129E3,7.201129E3,9.138672E1,1.1012192E3,2.2449614E3,4.143159E3,2.815534E3,2.3574688E3,1.5649536E3,4.4908438E3,4.776953E1,2.9146484E2,1.7404791E2,2.7793701E1,1.8806268E2,3.3554395E2,1.2146738E3,1.367747E3,3.6609424E2,2.7611005E2,5.120781E2,2.513612E2,1.9905237E2,9.42124E1,8.9257324E2,1.1130629E3,0E0,0E0,0E0,0E0,0E0,0E0,0E0,0E0,0E0,0E0,0E0,0E0,0E0,0E0,0E0,0E0,0E0,0E0,0E0,0E0,0E0,0E0,0E0,0E0,0E0,0E0,0E0,0E0,0E0,0E0,0E0,0E0],"parents":[2147483647,0,0,1,1,2,2,3,3,4,4,5,5,6,6,7,7,8,8,9,9,10,10,11,11,12,12,13,13,14,14,15,15,16,16,17,17,18,18,19,19,20,20,21,21,22,22,23,23,24,24,25,25,26,26,27,27,28,28,29,29,30,30],"right_children":[2,4,6,8,10,12,14,16,18,20,22,24,26,28,30,32,34,36,38,40,42,44,46,48,50,52,54,56,58,60,62,-1,-1,-1,-1,-1,-1,-1,-1,-1,-1,-1,-1,-1,-1,-1,-1,-1,-1,-1,-1,-1,-1,-1,-1,-1,-1,-1,-1,-1,-1,-1,-1],"split_conditions":[1E0,0E0,0E0,5.056383E-1,2.9510638E-1,2.9510638E-1,2.9510638E-1,3.3074468E-1,1.8E3,1.4E3,1.8E3,2E3,2E3,1.5E3,1.8E3,1.8E3,1.1E3,1.2E3,2E3,1.2E3,1.8E3,5.056383E-1,5.056383E-1,1.5E3,2.5E3,5.056383E-1,3E3,1.1E3,1.8E3,5.056383E-1,2.5E3,-5.4483622E-2,-5.0136488E-2,-3.8441233E-2,-5.20252E-2,-7.6554143E-3,-2.2873899E-2,-4.537754E-2,-5.543811E-2,-6.601983E-3,-1.8867433E-2,-2.842226E-2,-4.635253E-2,1.9762931E-2,3.8708184E-2,-1.2167866E-2,1.9088456E-2,2.9207323E-2,1.3115306E-2,-7.855638E-4,-3.0726431E-2,4.80902E-2,6.189688E-2,2.703458E-2,6.803166E-3,-6.655232E-3,-2.066963E-2,-3.5072464E-2,-4.9804937E-2,1.629704E-2,3.6486533E-2,-2.0526578E-3,-3.2413993E-2],"split_indices":[1,0,0,2,2,2,2,2,3,3,3,3,3,3,3,3,3,3,3,3,3,2,2,3,3,2,3,3,3,2,3,0,0,0,0,0,0,0,0,0,0,0,0,0,0,0,0,0,0,0,0,0,0,0,0,0,0,0,0,0,0,0,0],"split_type":[0,0,0,0,0,0,0,0,0,0,0,0,0,0,0,0,0,0,0,0,0,0,0,0,0,0,0,0,0,0,0,0,0,0,0,0,0,0,0,0,0,0,0,0,0,0,0,0,0,0,0,0,0,0,0,0,0,0,0,0,0,0,0],"sum_hessian":[2.834842E5,1.5301734E5,1.3046686E5,6.3222082E4,8.979526E4,7.039956E4,6.00673E4,5.2744156E4,1.0477929E4,2.6264889E4,6.3530367E4,2.2889346E4,4.751021E4,1.793692E4,4.213038E4,3.0409764E4,2.2334393E4,7.58454E3,2.8933884E3,1.5011093E4,1.1253797E4,4.5538863E4,1.7991504E4,1.9137178E4,3.752168E3,3.876577E4,8.744444E3,1.139417E4,6.5427505E3,2.9659936E4,1.2470444E4,2.0965984E4,9.443778E3,5.154856E3,1.7179535E4,4.1440483E3,3.4404915E3,1.3347542E3,1.5586344E3,1.0572911E4,4.4381807E3,4.1336533E3,7.120144E3,3.4305473E4,1.1233388E4,1.3234325E4,4.757178E3,1.4453541E4,4.6836367E3,1.0825072E3,2.6696606E3,3.0092213E4,8.673555E3,6.7556724E3,1.9887722E3,3.808031E3,7.586139E3,1.3950928E3,5.1476577E3,2.2414684E4,7.2452524E3,7.3467974E3,5.123647E3],"tree_param":{"num_deleted":"0","num_feature":"15","num_nodes":"63","size_leaf_vector":"1"}},{"base_weights":[-1.5722553E-3,-3.1953102E-1,3.7122086E-1,-9.0867496E-1,9.26824E-2,7.030913E-1,-1.661272E-2,-9.910263E-1,-5.8221775E-1,2.4768326E-1,-3.0876946E-1,8.1767666E-1,1.7623828E-1,1.7639847E-1,-4.8232254E-1,-8.598082E-1,-1.0048239E0,-4.2434013E-1,-9.903978E-1,1.4332363E-1,6.398462E-1,-4.653027E-1,2.2074145E-1,7.4708205E-1,1.1333185E0,6.173369E-2,6.217307E-1,6.506422E-2,5.9976315E-1,-6.331381E-1,3.4099855E-2,-4.4384595E-2,-3.5052735E-2,-4.97046E-2,-5.3976625E-2,-1.1733836E-2,-2.5946144E-2,-4.4647135E-2,-5.3648647E-2,1.28913615E-2,2.5259785E-4,3.624348E-2,2.7046619E-2,-1.8085128E-2,-4.458678E-2,1.4814039E-2,-2.7361E-2,4.279922E-2,3.0722616E-2,5.861355E-2,4.6723273E-2,8.190854E-3,-1.4880131E-2,3.529669E-2,1.7237889E-2,9.5991E-3,-2.109095E-3,3.5440158E-2,2.5456825E-2,-2.3064492E-2,-4.3567795E-2,1.17215365E-2,-1.1927898E-2],"categories":[],"categories_nodes":[],"categories_segments":[],"categories_sizes":[],"default_left":[0,0,0,0,0,0,0,0,0,0,0,0,0,0,0,0,0,0,0,0,0,0,0,0,0,0,0,0,0,0,0,0,0,0,0,0,0,0,0,0,0,0,0,0,0,0,0,0,0,0,0,0,0,0,0,0,0,0,0,0,0,0,0],"id":14,"left_children":[1,3,5,7,9,11,13,15,17,19,21,23,25,27,29,31,33,35,37,39,41,43,45,47,49,51,53,55,57,59,61,-1,-1,-1,-1,-1,-1,-1,-1,-1,-1,-1,-1,-1,-1,-1,-1,-1,-1,-1,-1,-1,-1,-1,-1,-1,-1,-1,-1,-1,-1,-1,-1],"loss_changes":[3.336981E4,3.6898348E4,1.6679363E4,1.6806875E3,5.562521E3,4.215492E3,5.3714653E3,8.928516E1,8.115132E2,2.6392354E3,2.064047E3,1.2769414E3,6.363148E2,1.9912461E3,1.3638127E3,2.022876E1,3.484375E1,1.6284546E2,2.7026855E1,8.0646826E2,1.1343555E2,8.4861084E2,3.297796E2,6.763535E2,7.976953E1,3.641702E2,5.911609E1,4.553612E2,8.6407715E1,5.542124E2,2.1628632E2,0E0,0E0,0E0,0E0,0E0,0E0,0E0,0E0,0E0,0E0,0E0,0E0,0E0,0E0,0E0,0E0,0E0,0E0,0E0,0E0,0E0,0E0,0E0,0E0,0E0,0E0,0E0,0E0,0E0,0E0,0E0,0E0],"parents":[2147483647,0,0,1,1,2,2,3,3,4,4,5,5,6,6,7,7,8,8,9,9,10,10,11,11,12,12,13,13,14,14,15,15,16,16,17,17,18,18,19,19,20,20,21,21,22,22,23,23,24,24,25,25,26,26,27,27,28,28,29,29,30,30],"right_children":[2,4,6,8,10,12,14,16,18,20,22,24,26,28,30,32,34,36,38,40,42,44,46,48,50,52,54,56,58,60,62,-1,-1,-1,-1,-1,-1,-1,-1,-1,-1,-1,-1,-1,-1,-1,-1,-1,-1,-1,-1,-1,-1,-1,-1,-1,-1,-1,-1,-1,-1,-1,-1],"split_conditions":[1E0,0E0,0E0,1E0,1.8E3,2E3,1.8E3,1E3,1.8E3,1E0,1E0,1E0,1E0,1E0,1E0,1E0,5E0,1.1E3,2E3,1.2E3,1.2E3,2.5E3,3E3,1.3E3,1.8E3,3E3,3E3,1.2E3,1.2E3,2.5E3,2.5E3,-4.4384595E-2,-3.5052735E-2,-4.97046E-2,-5.3976625E-2,-1.1733836E-2,-2.5946144E-2,-4.4647135E-2,-5.3648647E-2,1.28913615E-2,2.5259785E-4,3.624348E-2,2.7046619E-2,-1.8085128E-2,-4.458678E-2,1.4814039E-2,-2.7361E-2,4.279922E-2,3.0722616E-2,5.861355E-2,4.6723273E-2,8.190854E-3,-1.4880131E-2,3.529669E-2,1.7237889E-2,9.5991E-3,-2.109095E-3,3.5440158E-2,2.5456825E-2,-2.3064492E-2,-4.3567795E-2,1.17215365E-2,-1.1927898E-2],"split_indices":[1,0,0,7,3,3,3,3,3,7,7,7,7,7,7,11,9,3,3,3,3,3,3,3,3,3,3,3,3,3,3,0,0,0,0,0,0,0,0,0,0,0,0,0,0,0,0,0,0,0,0,0,0,0,0,0,0,0,0,0,0,0,0],"split_type":[0,0,0,0,0,0,0,0,0,0,0,0,0,0,0,0,0,0,0,0,0,0,0,0,0,0,0,0,0,0,0,0,0,0,0,0,0,0,0,0,0,0,0,0,0,0,0,0,0,0,0,0,0,0,0,0,0,0,0,0,0,0,0],"sum_hessian":[2.815216E5,1.5193511E5,1.2958648E5,6.254435E4,8.939076E4,6.983112E4,5.9755355E4,4.9943246E4,1.26011045E4,6.4491293E4,2.4899465E4,5.7355965E4,1.2475155E4,4.224683E4,1.7508527E4,4.7591973E3,4.518405E4,9.088359E3,3.5127454E3,5.0937836E4,1.355346E4,1.9218457E4,5.681009E3,4.687598E4,1.0479984E4,9.92549E3,2.5496648E3,3.3451445E4,8.795383E3,1.3551037E4,3.9574893E3,4.043339E3,7.1585834E2,3.9523566E4,5.660485E3,3.0257715E3,6.0625874E3,1.6177185E3,1.895027E3,2.7862807E4,2.307503E4,7.2842036E3,6.269256E3,1.5463846E4,3.75461E3,5.1729824E3,5.0802637E2,2.5736756E4,2.1139225E4,8.758446E3,1.7215385E3,7.7302812E3,2.1952092E3,1.9536631E3,5.960017E2,1.5320657E4,1.813079E4,3.9882275E3,4.807156E3,7.8742617E3,5.676776E3,2.2816243E3,1.6758651E3],"tree_param":{"num_deleted":"0","num_feature":"15","num_nodes":"63","size_leaf_vector":"1"}},{"base_weights":[-8.8636874E-4,-3.0469644E-1,3.5513082E-1,-8.765307E-1,9.058197E-2,6.737397E-1,-1.4346934E-2,-9.595563E-1,-4.652186E-1,-4.378146E-1,3.0961174E-1,2.9370767E-1,8.58869E-1,-5.222896E-1,2.0084205E-1,-9.994249E-1,-9.05523E-1,-2.8291875E-1,-9.498999E-1,-2.2779438E-1,-7.954494E-1,4.5703298E-1,-6.2284943E-2,4.1277245E-1,-6.077646E-1,9.9970716E-1,5.5517775E-1,-3.1380415E-1,-8.924337E-1,3.959209E-1,-2.649953E-1,-5.1234055E-2,-4.714818E-2,-3.5066184E-2,-4.8340503E-2,-7.791232E-3,-2.1897657E-2,-4.2383615E-2,-5.1886965E-2,-3.9090957E-3,-1.6216306E-2,-2.9596714E-2,-4.3731168E-2,1.8501917E-2,3.5404235E-2,3.26304E-3,-3.1400643E-2,2.5729328E-2,8.206459E-3,-2.3111958E-2,-4.7112763E-2,4.6913404E-2,6.0864847E-2,3.5825115E-2,1.7051993E-2,-6.9954894E-3,-2.009522E-2,-3.484832E-2,-4.727412E-2,1.5287481E-2,3.391869E-2,-1.8057226E-3,-2.9781714E-2],"categories":[],"categories_nodes":[],"categories_segments":[],"categories_sizes":[],"default_left":[0,0,0,0,0,0,0,0,0,0,0,0,0,0,0,0,0,0,0,0,0,0,0,0,0,0,0,0,0,0,0,0,0,0,0,0,0,0,0,0,0,0,0,0,0,0,0,0,0,0,0,0,0,0,0,0,0,0,0,0,0,0,0],"id":15,"left_children":[1,3,5,7,9,11,13,15,17,19,21,23,25,27,29,31,33,35,37,39,41,43,45,47,49,51,53,55,57,59,61,-1,-1,-1,-1,-1,-1,-1,-1,-1,-1,-1,-1,-1,-1,-1,-1,-1,-1,-1,-1,-1,-1,-1,-1,-1,-1,-1,-1,-1,-1,-1,-1],"loss_changes":[3.0232754E4,3.4089543E4,1.515041E4,2.1043867E3,1.0320771E4,4.8616367E3,6.5139155E3,1.0930078E2,9.1454126E2,1.9625356E3,3.456459E3,2.4302007E3,1.9867734E3,1.3681113E3,3.8041787E3,4.0810547E1,2.7176367E2,1.4817023E2,2.4253174E1,2.377373E2,1.5506396E2,9.856289E2,1.2914971E3,5.0611304E2,1.2796686E2,4.2291016E2,5.0831885E2,1.7371033E2,6.536035E1,7.5114453E2,9.349891E2,0E0,0E0,0E0,0E0,0E0,0E0,0E0,0E0,0E0,0E0,0E0,0E0,0E0,0E0,0E0,0E0,0E0,0E0,0E0,0E0,0E0,0E0,0E0,0E0,0E0,0E0,0E0,0E0,0E0,0E0,0E0,0E0],"parents":[2147483647,0,0,1,1,2,2,3,3,4,4,5,5,6,6,7,7,8,8,9,9,10,10,11,11,12,12,13,13,14,14,15,15,16,16,17,17,18,18,19,19,20,20,21,21,22,22,23,23,24,24,25,25,26,26,27,27,28,28,29,29,30,30],"right_children":[2,4,6,8,10,12,14,16,18,20,22,24,26,28,30,32,34,36,38,40,42,44,46,48,50,52,54,56,58,60,62,-1,-1,-1,-1,-1,-1,-1,-1,-1,-1,-1,-1,-1,-1,-1,-1,-1,-1,-1,-1,-1,-1,-1,-1,-1,-1,-1,-1,-1,-1,-1,-1],"split_conditions":[1E0,0E0,0E0,5.056383E-1,2.9510638E-1,2.9510638E-1,2.9510638E-1,3.3074468E-1,1.8E3,1.5E3,1.8E3,2.5E3,1.8E3,1.5E3,1.8E3,1.8E3,1.1E3,1.2E3,2E3,1.1E3,1.8E3,3.4585106E-1,2.5E3,1.5E3,3E3,5.056383E-1,2.5E3,1.1E3,1.8E3,5.056383E-1,2.5E3,-5.1234055E-2,-4.714818E-2,-3.5066184E-2,-4.8340503E-2,-7.791232E-3,-2.1897657E-2,-4.2383615E-2,-5.1886965E-2,-3.9090957E-3,-1.6216306E-2,-2.9596714E-2,-4.3731168E-2,1.8501917E-2,3.5404235E-2,3.26304E-3,-3.1400643E-2,2.5729328E-2,8.206459E-3,-2.3111958E-2,-4.7112763E-2,4.6913404E-2,6.0864847E-2,3.5825115E-2,1.7051993E-2,-6.9954894E-3,-2.009522E-2,-3.484832E-2,-4.727412E-2,1.5287481E-2,3.391869E-2,-1.8057226E-3,-2.9781714E-2],"split_indices":[1,0,0,2,2,2,2,2,3,3,3,3,3,3,3,3,3,3,3,3,3,2,3,3,3,2,3,3,3,2,3,0,0,0,0,0,0,0,0,0,0,0,0,0,0,0,0,0,0,0,0,0,0,0,0,0,0,0,0,0,0,0,0],"split_type":[0,0,0,0,0,0,0,0,0,0,0,0,0,0,0,0,0,0,0,0,0,0,0,0,0,0,0,0,0,0,0,0,0,0,0,0,0,0,0,0,0,0,0,0,0,0,0,0,0,0,0,0,0,0,0,0,0,0,0,0,0,0,0],"sum_hessian":[2.795125E5,1.5081434E5,1.28698164E5,6.164041E4,8.917393E4,6.910594E4,5.959222E4,5.1286285E4,1.0354126E4,2.6131545E4,6.3042387E4,2.2638072E4,4.6467867E4,1.7733082E4,4.1859137E4,2.9499166E4,2.1787117E4,7.525543E3,2.8285828E3,1.6464742E4,9.666803E3,4.5146258E4,1.7896127E4,1.9997543E4,2.6405308E3,3.174373E4,1.4724137E4,1.1345167E4,6.387915E3,2.9504084E4,1.2355055E4,2.0367666E4,9.131501E3,5.0330537E3,1.6754064E4,4.13698E3,3.3885632E3,1.313168E3,1.5154149E3,6.458257E3,1.0006485E4,2.7103877E3,6.9564146E3,3.35304E4,1.1615859E4,1.4604319E4,3.2918088E3,1.4186778E4,5.810764E3,1.8420406E3,7.9849005E2,2.4759023E4,6.984706E3,8.395895E3,6.3282417E3,3.8163486E3,7.5288184E3,1.3672985E3,5.0206167E3,2.2366398E4,7.137685E3,7.3019146E3,5.0531396E3],"tree_param":{"num_deleted":"0","num_feature":"15","num_nodes":"63","size_leaf_vector":"1"}},{"base_weights":[-9.3384075E-4,-2.9258317E-1,3.4125948E-1,-6.482139E-1,-1.2676159E-1,-5.80212E-2,5.2507335E-1,-4.9783647E-1,-7.789816E-1,2.2937117E-2,-3.5694963E-1,1.14173524E-1,-4.868556E-1,6.802614E-1,1.7877094E-1,-6.3560414E-1,-4.516371E-1,-6.8697697E-1,-8.5969526E-1,-8.3351575E-2,3.3700198E-1,-4.5784643E-1,-6.312672E-2,2.370679E-1,1.00356685E-2,-3.1612423E-1,-7.241597E-1,6.1040676E-1,9.140517E-1,3.5726795E-1,-6.721598E-2,-4.634176E-2,-2.5472337E-2,-2.2912985E-2,-1.8163206E-3,-3.988267E-2,-3.244784E-2,-4.3381866E-2,-1.4981756E-2,-4.8013213E-3,3.1067878E-2,1.5957009E-2,5.3139597E-2,-1.951914E-2,-4.327708E-2,-4.4273213E-3,4.304322E-2,6.274716E-3,1.6005643E-2,-4.990851E-3,4.5756116E-3,-2.2418002E-2,-1.0952244E-2,-3.219428E-2,-4.495012E-2,3.544681E-2,2.6463125E-2,4.8123885E-2,4.1320484E-2,1.2907691E-2,3.3458166E-2,-9.449229E-3,1.41061945E-2],"categories":[],"categories_nodes":[],"categories_segments":[],"categories_sizes":[],"default_left":[0,0,0,0,0,0,0,0,0,0,0,0,0,0,0,0,0,0,0,0,0,0,0,0,0,0,0,0,0,0,0,0,0,0,0,0,0,0,0,0,0,0,0,0,0,0,0,0,0,0,0,0,0,0,0,0,0,0,0,0,0,0,0],"id":16,"left_children":[1,3,5,7,9,11,13,15,17,19,21,23,25,27,29,31,33,35,37,39,41,43,45,47,49,51,53,55,57,59,61,-1,-1,-1,-1,-1,-1,-1,-1,-1,-1,-1,-1,-1,-1,-1,-1,-1,-1,-1,-1,-1,-1,-1,-1,-1,-1,-1,-1,-1,-1,-1,-1],"loss_changes":[2.7693271E4,8.834143E3,9.370896E3,9.3622656E2,3.5207048E3,2.972301E3,4.698453E3,1.4062646E2,1.8839551E2,2.0666926E3,1.1935039E3,3.6752115E2,4.6686914E2,9.852207E2,1.188085E3,2.0369165E2,4.5589844E1,4.9412598E1,5.994336E1,4.1317578E2,2.0243396E2,8.2380615E2,2.417655E2,1.2196576E2,1.3916661E2,8.595099E1,6.691821E1,3.7114453E2,5.788379E1,4.8443713E2,4.840698E2,0E0,0E0,0E0,0E0,0E0,0E0,0E0,0E0,0E0,0E0,0E0,0E0,0E0,0E0,0E0,0E0,0E0,0E0,0E0,0E0,0E0,0E0,0E0,0E0,0E0,0E0,0E0,0E0,0E0,0E0,0E0,0E0],"parents":[2147483647,0,0,1,1,2,2,3,3,4,4,5,5,6,6,7,7,8,8,9,9,10,10,11,11,12,12,13,13,14,14,15,15,16,16,17,17,18,18,19,19,20,20,21,21,22,22,23,23,24,24,25,25,26,26,27,27,28,28,29,29,30,30],"right_children":[2,4,6,8,10,12,14,16,18,20,22,24,26,28,30,32,34,36,38,40,42,44,46,48,50,52,54,56,58,60,62,-1,-1,-1,-1,-1,-1,-1,-1,-1,-1,-1,-1,-1,-1,-1,-1,-1,-1,-1,-1,-1,-1,-1,-1,-1,-1,-1,-1,-1,-1,-1,-1],"split_conditions":[1E0,2.9659575E-1,2.9510638E-1,1.3E3,1.5E3,1.8E3,1.8E3,-5E-1,1.8E3,5.056383E-1,5.056383E-1,1.2E3,2.5E3,5.056383E-1,2.5E3,1.52E2,1E0,-5E-1,1E0,1E0,1E0,2.5E3,1E0,2.3E1,1.54E2,1.54E2,3E3,1.2E3,1.3E3,5.056383E-1,5.056383E-1,-4.634176E-2,-2.5472337E-2,-2.2912985E-2,-1.8163206E-3,-3.988267E-2,-3.244784E-2,-4.3381866E-2,-1.4981756E-2,-4.8013213E-3,3.1067878E-2,1.5957009E-2,5.3139597E-2,-1.951914E-2,-4.327708E-2,-4.4273213E-3,4.304322E-2,6.274716E-3,1.6005643E-2,-4.990851E-3,4.5756116E-3,-2.2418002E-2,-1.0952244E-2,-3.219428E-2,-4.495012E-2,3.544681E-2,2.6463125E-2,4.8123885E-2,4.1320484E-2,1.2907691E-2,3.3458166E-2,-9.449229E-3,1.41061945E-2],"split_indices":[1,2,2,3,3,3,3,8,3,2,2,3,3,2,3,10,6,8,6,6,6,3,6,14,10,10,3,3,3,2,2,0,0,0,0,0,0,0,0,0,0,0,0,0,0,0,0,0,0,0,0,0,0,0,0,0,0,0,0,0,0,0,0],"split_type":[0,0,0,0,0,0,0,0,0,0,0,0,0,0,0,0,0,0,0,0,0,0,0,0,0,0,0,0,0,0,0,0,0,0,0,0,0,0,0,0,0,0,0,0,0,0,0,0,0,0,0,0,0,0,0,0,0,0,0,0,0,0,0],"sum_hessian":[2.7748428E5,1.4980598E5,1.276783E5,4.763702E4,1.0216896E5,4.0249188E4,8.742911E4,2.2159994E4,2.5477025E4,6.1908457E4,4.0260504E4,2.8718213E4,1.1530975E4,6.0372926E4,2.7056188E4,5.5609414E3,1.6599053E4,1.19112295E4,1.3565795E4,4.625493E4,1.5653525E4,2.9968553E4,1.0291952E4,1.3171728E4,1.5546484E4,6.707888E3,4.823086E3,4.6487305E4,1.3885622E4,1.5678911E4,1.1377276E4,1.6784681E3,3.8824731E3,1.6338169E4,2.608845E2,3.03929E3,8.871939E3,1.3375341E4,1.9045473E2,4.5438766E4,8.1616644E2,1.5279224E4,3.7430246E2,2.5715637E4,4.252915E3,1.0017467E4,2.744854E2,5.622152E3,7.549576E3,6.619761E3,8.926723E3,2.837628E3,3.8702603E3,3.3093928E3,1.5136932E3,2.0990201E4,2.5497102E4,8.935988E3,4.9496343E3,1.1899741E4,3.7791697E3,8.437149E3,2.9401265E3],"tree_param":{"num_deleted":"0","num_feature":"15","num_nodes":"63","size_leaf_vector":"1"}},{"base_weights":[-1.5420931E-3,-2.8030235E-1,3.2542902E-1,-8.309662E-1,9.609015E-2,6.3458395E-1,-3.1279255E-2,-9.06363E-1,-5.398442E-1,2.3149583E-1,-2.5755376E-1,7.202389E-1,6.78315E-2,1.3559228E-1,-4.3791103E-1,-7.7593666E-1,-9.2025E-1,-4.0089586E-1,-9.059709E-1,1.41986E-1,5.742137E-1,-3.9924416E-1,2.1406525E-1,6.532473E-1,1.0273048E0,-3.241857E-2,4.6136534E-1,4.3108165E-2,5.020437E-1,-5.782453E-1,3.461792E-2,-4.4580083E-2,-3.6560178E-2,-4.567798E-2,-5.090452E-2,-1.1646086E-2,-2.4225293E-2,-5.2530225E-2,-4.294338E-2,1.1374063E-2,-9.3521224E-4,3.3072863E-2,2.3648491E-2,-1.53374495E-2,-3.9369203E-2,1.4183441E-2,-2.456603E-2,3.6791794E-2,2.29286E-2,5.4098237E-2,4.1426565E-2,3.6794057E-3,-1.38250915E-2,9.479834E-3,2.7444199E-2,7.610816E-3,-2.4463595E-3,2.8736297E-2,1.8394332E-2,-2.102113E-2,-4.0061668E-2,6.1214766E-3,-2.7395366E-2],"categories":[],"categories_nodes":[],"categories_segments":[],"categories_sizes":[],"default_left":[0,0,0,0,0,0,0,0,0,0,0,0,0,0,0,0,0,0,0,0,0,0,0,0,0,0,0,0,0,0,0,0,0,0,0,0,0,0,0,0,0,0,0,0,0,0,0,0,0,0,0,0,0,0,0,0,0,0,0,0,0,0,0],"id":17,"left_children":[1,3,5,7,9,11,13,15,17,19,21,23,25,27,29,31,33,35,37,39,41,43,45,47,49,51,53,55,57,59,61,-1,-1,-1,-1,-1,-1,-1,-1,-1,-1,-1,-1,-1,-1,-1,-1,-1,-1,-1,-1,-1,-1,-1,-1,-1,-1,-1,-1,-1,-1,-1,-1],"loss_changes":[2.5150816E4,3.0872477E4,1.4004062E4,1.3267305E3,4.23678E3,3.3023281E3,4.000865E3,8.6046875E1,6.325E2,1.9625315E3,1.6371093E3,1.2147656E3,3.524778E2,1.4167452E3,1.1377278E3,2.307544E1,2.7191406E1,1.2651672E2,2.213086E1,6.969971E2,1.16569824E2,6.759375E2,2.7802542E2,7.795488E2,1.1379297E2,1.8427191E2,4.2954193E1,3.3523648E2,8.181665E1,4.650293E2,2.0102406E2,0E0,0E0,0E0,0E0,0E0,0E0,0E0,0E0,0E0,0E0,0E0,0E0,0E0,0E0,0E0,0E0,0E0,0E0,0E0,0E0,0E0,0E0,0E0,0E0,0E0,0E0,0E0,0E0,0E0,0E0,0E0,0E0],"parents":[2147483647,0,0,1,1,2,2,3,3,4,4,5,5,6,6,7,7,8,8,9,9,10,10,11,11,12,12,13,13,14,14,15,15,16,16,17,17,18,18,19,19,20,20,21,21,22,22,23,23,24,24,25,25,26,26,27,27,28,28,29,29,30,30],"right_children":[2,4,6,8,10,12,14,16,18,20,22,24,26,28,30,32,34,36,38,40,42,44,46,48,50,52,54,56,58,60,62,-1,-1,-1,-1,-1,-1,-1,-1,-1,-1,-1,-1,-1,-1,-1,-1,-1,-1,-1,-1,-1,-1,-1,-1,-1,-1,-1,-1,-1,-1,-1,-1],"split_conditions":[1E0,0E0,0E0,1E0,1.8E3,2.5E3,1.8E3,1E3,1.8E3,1E0,1E0,1E0,1E0,1E0,1E0,-5E-1,6E0,1.1E3,-5E-1,1.3E3,1.2E3,2.5E3,3E3,1.5E3,1.8E3,3E3,-5E-1,1.2E3,1.3E3,2.5E3,3E3,-4.4580083E-2,-3.6560178E-2,-4.567798E-2,-5.090452E-2,-1.1646086E-2,-2.4225293E-2,-5.2530225E-2,-4.294338E-2,1.1374063E-2,-9.3521224E-4,3.3072863E-2,2.3648491E-2,-1.53374495E-2,-3.9369203E-2,1.4183441E-2,-2.456603E-2,3.6791794E-2,2.29286E-2,5.4098237E-2,4.1426565E-2,3.6794057E-3,-1.38250915E-2,9.479834E-3,2.7444199E-2,7.610816E-3,-2.4463595E-3,2.8736297E-2,1.8394332E-2,-2.102113E-2,-4.0061668E-2,6.1214766E-3,-2.7395366E-2],"split_indices":[1,0,0,7,3,3,3,3,3,7,7,7,7,7,7,8,9,3,8,3,3,3,3,3,3,3,8,3,3,3,3,0,0,0,0,0,0,0,0,0,0,0,0,0,0,0,0,0,0,0,0,0,0,0,0,0,0,0,0,0,0,0,0],"split_type":[0,0,0,0,0,0,0,0,0,0,0,0,0,0,0,0,0,0,0,0,0,0,0,0,0,0,0,0,0,0,0,0,0,0,0,0,0,0,0,0,0,0,0,0,0,0,0,0,0,0,0,0,0,0,0,0,0,0,0,0,0,0,0],"sum_hessian":[2.7593603E5,1.489493E5,1.26986734E5,6.047421E4,8.8475086E4,6.802751E4,5.8959227E4,4.80319E4,1.2442314E4,6.3979016E4,2.4496072E4,5.9095723E4,8.931787E3,4.180428E4,1.7154947E4,4.6287275E3,4.340317E4,9.021247E3,3.4210674E3,5.0731098E4,1.3247918E4,1.8837137E4,5.658937E3,4.8515094E4,1.0580626E4,7.11902E3,1.8127668E3,3.3381133E4,8.423146E3,1.3226758E4,3.9281885E3,1.2844662E3,3.3442612E3,4.0636758E4,2.7664116E3,2.9998494E3,6.0213975E3,8.341619E2,2.5869055E3,3.311332E4,1.7617775E4,7.112168E3,6.1357505E3,1.5213847E4,3.6232898E3,5.1514224E3,5.0751428E2,3.406141E4,1.4453686E4,8.294389E3,2.2862373E3,4.963642E3,2.155378E3,4.4269778E2,1.370069E3,1.5274061E4,1.8107072E4,5.460472E3,2.9626748E3,7.7472007E3,5.4795576E3,3.4145146E3,5.1367377E2],"tree_param":{"num_deleted":"0","num_feature":"15","num_nodes":"63","size_leaf_vector":"1"}},{"base_weights":[1.31697E-3,-2.6545122E-1,3.1393516E-1,-8.0036956E-1,9.60648E-2,6.096483E-1,-2.4027197E-2,-8.741062E-1,-5.1862514E-1,2.603506E-1,-1.6781929E-1,7.122763E-1,1.5241717E-1,1.3844492E-1,-4.2313367E-1,-7.360362E-1,-8.8887596E-1,-3.7734094E-1,-8.9621574E-1,1.761968E-1,5.8796364E-1,-2.9245752E-1,2.5702026E-1,6.473298E-1,1.0158935E0,5.634578E-2,5.3854436E-1,4.8506647E-2,4.9596432E-1,-5.5309033E-1,1.128398E-2,-4.251003E-2,-3.459416E-2,-4.390441E-2,-4.8185606E-2,-3.0252725E-2,-1.5210739E-2,-4.059116E-2,-4.8461284E-2,7.0095756E-3,2.0309139E-2,2.8658623E-2,4.683863E-2,-1.0897592E-2,-3.8298648E-2,1.4989263E-2,-1.7732956E-2,3.9654456E-2,2.7888378E-2,5.279925E-2,4.0716946E-2,7.1739466E-3,-1.2656393E-2,3.092019E-2,1.38797555E-2,6.129756E-3,-4.606836E-3,2.3768133E-2,4.797578E-2,-2.0354478E-2,-3.8037747E-2,9.762425E-3,-1.1954769E-2],"categories":[],"categories_nodes":[],"categories_segments":[],"categories_sizes":[],"default_left":[0,0,0,0,0,0,0,0,0,0,0,0,0,0,0,0,0,0,0,0,0,0,0,0,0,0,0,0,0,0,0,0,0,0,0,0,0,0,0,0,0,0,0,0,0,0,0,0,0,0,0,0,0,0,0,0,0,0,0,0,0,0,0],"id":18,"left_children":[1,3,5,7,9,11,13,15,17,19,21,23,25,27,29,31,33,35,37,39,41,43,45,47,49,51,53,55,57,59,61,-1,-1,-1,-1,-1,-1,-1,-1,-1,-1,-1,-1,-1,-1,-1,-1,-1,-1,-1,-1,-1,-1,-1,-1,-1,-1,-1,-1,-1,-1,-1,-1],"loss_changes":[2.2858377E4,2.8599598E4,1.2612605E4,1.238418E3,3.825916E3,3.1581973E3,3.8190186E3,9.5515625E1,6.5964624E2,1.4993325E3,1.7930908E3,1.083041E3,4.5766226E2,1.3457878E3,9.6202637E2,2.2259033E1,3.3351562E1,1.4969104E2,1.9710938E1,3.582379E2,5.6604492E1,9.2338403E2,2.0103992E2,5.905664E2,7.712012E1,2.6652057E2,5.094867E1,3.4850916E2,7.969507E1,3.9720825E2,1.8081302E2,0E0,0E0,0E0,0E0,0E0,0E0,0E0,0E0,0E0,0E0,0E0,0E0,0E0,0E0,0E0,0E0,0E0,0E0,0E0,0E0,0E0,0E0,0E0,0E0,0E0,0E0,0E0,0E0,0E0,0E0,0E0,0E0],"parents":[2147483647,0,0,1,1,2,2,3,3,4,4,5,5,6,6,7,7,8,8,9,9,10,10,11,11,12,12,13,13,14,14,15,15,16,16,17,17,18,18,19,19,20,20,21,21,22,22,23,23,24,24,25,25,26,26,27,27,28,28,29,29,30,30],"right_children":[2,4,6,8,10,12,14,16,18,20,22,24,26,28,30,32,34,36,38,40,42,44,46,48,50,52,54,56,58,60,62,-1,-1,-1,-1,-1,-1,-1,-1,-1,-1,-1,-1,-1,-1,-1,-1,-1,-1,-1,-1,-1,-1,-1,-1,-1,-1,-1,-1,-1,-1,-1,-1],"split_conditions":[1E0,0E0,0E0,1E0,1.5E3,2E3,1.8E3,1E3,1.8E3,1E0,1E0,1E0,1E0,1E0,1E0,-5E-1,5E0,-5E-1,2E3,1E0,1E0,2.5E3,3E3,1.2E3,1.8E3,3E3,3E3,1.3E3,1E0,2.5E3,2.5E3,-4.251003E-2,-3.459416E-2,-4.390441E-2,-4.8185606E-2,-3.0252725E-2,-1.5210739E-2,-4.059116E-2,-4.8461284E-2,7.0095756E-3,2.0309139E-2,2.8658623E-2,4.683863E-2,-1.0897592E-2,-3.8298648E-2,1.4989263E-2,-1.7732956E-2,3.9654456E-2,2.7888378E-2,5.279925E-2,4.0716946E-2,7.1739466E-3,-1.2656393E-2,3.092019E-2,1.38797555E-2,6.129756E-3,-4.606836E-3,2.3768133E-2,4.797578E-2,-2.0354478E-2,-3.8037747E-2,9.762425E-3,-1.1954769E-2],"split_indices":[1,0,0,7,3,3,3,3,3,7,7,7,7,7,7,8,9,8,3,11,5,3,3,3,3,3,3,3,5,3,3,0,0,0,0,0,0,0,0,0,0,0,0,0,0,0,0,0,0,0,0,0,0,0,0,0,0,0,0,0,0,0,0],"split_type":[0,0,0,0,0,0,0,0,0,0,0,0,0,0,0,0,0,0,0,0,0,0,0,0,0,0,0,0,0,0,0,0,0,0,0,0,0,0,0,0,0,0,0,0,0,0,0,0,0,0,0,0,0,0,0,0,0,0,0,0,0,0,0],"sum_hessian":[2.740902E5,1.4789012E5,1.2620005E5,5.964103E4,8.82491E4,6.73068E4,5.889325E4,4.7267707E4,1.2373323E4,5.4388777E4,3.386032E4,5.496808E4,1.233872E4,4.185499E4,1.7038264E4,4.5737905E3,4.2693918E4,9.00599E3,3.3673335E3,4.3274797E4,1.11139795E4,2.618022E4,7.680101E3,4.528498E4,9.683099E3,9.881617E3,2.4571023E3,3.3443426E4,8.4115625E3,1.3114863E4,3.9233994E3,1.2693467E3,3.3044438E3,3.7328293E4,5.3656235E3,2.1868403E3,6.81915E3,1.5687306E3,1.7986029E3,3.7418914E4,5.8558843E3,1.0664929E4,4.4905078E2,2.2622484E4,3.5577363E3,7.178918E3,5.01183E2,1.7231537E4,2.8053445E4,8.072271E3,1.6108278E3,7.7113726E3,2.1702446E3,1.8798989E3,5.7720337E2,2.1905068E4,1.1538356E4,8.055973E3,3.5558902E2,7.702957E3,5.4119062E3,2.26203E3,1.6613695E3],"tree_param":{"num_deleted":"0","num_feature":"15","num_nodes":"63","size_leaf_vector":"1"}},{"base_weights":[8.764758E-4,-2.5506127E-1,3.002246E-1,-7.6961213E-1,8.877762E-2,5.8583087E-1,-2.371532E-2,-8.5014945E-1,-3.8979402E-1,-3.983864E-1,2.8894582E-1,2.391278E-1,7.6104385E-1,-4.7573945E-1,1.6871698E-1,-7.0653623E-1,-8.656468E-1,-2.2429638E-1,-8.471985E-1,-1.933271E-1,-6.8673694E-1,4.1523165E-1,-3.1255968E-2,3.4050682E-1,-5.2985406E-1,8.9402914E-1,4.8415098E-1,-2.9177216E-1,-7.7863544E-1,3.3189946E-1,-2.1715702E-1,-4.537728E-2,-2.3426784E-2,-4.2558875E-2,-4.700462E-2,-2.3480063E-2,-7.318853E-3,-3.6393467E-2,-4.763065E-2,-3.7400175E-3,-1.4140129E-2,-2.4714429E-2,-4.0181376E-2,1.7339876E-2,3.176539E-2,3.95231E-3,-2.639998E-2,2.0446664E-2,3.4028594E-3,-2.0095555E-2,-4.167372E-2,4.1740976E-2,5.574533E-2,3.1028336E-2,1.541027E-2,-7.088368E-3,-1.8656986E-2,-2.9652286E-2,-4.2500492E-2,1.27026215E-2,2.917101E-2,-9.790723E-4,-2.539512E-2],"categories":[],"categories_nodes":[],"categories_segments":[],"categories_sizes":[],"default_left":[0,0,0,0,0,0,0,0,0,0,0,0,0,0,0,0,0,0,0,0,0,0,0,0,0,0,0,0,0,0,0,0,0,0,0,0,0,0,0,0,0,0,0,0,0,0,0,0,0,0,0,0,0,0,0,0,0,0,0,0,0,0,0],"id":19,"left_children":[1,3,5,7,9,11,13,15,17,19,21,23,25,27,29,31,33,35,37,39,41,43,45,47,49,51,53,55,57,59,61,-1,-1,-1,-1,-1,-1,-1,-1,-1,-1,-1,-1,-1,-1,-1,-1,-1,-1,-1,-1,-1,-1,-1,-1,-1,-1,-1,-1,-1,-1,-1,-1],"loss_changes":[2.0878053E4,2.5991066E4,1.16207E4,1.7995586E3,8.587418E3,4.0546016E3,5.1193486E3,1.0721875E2,7.7915796E2,1.5161897E3,2.5239907E3,1.7472932E3,1.6321445E3,9.7889526E2,2.5994072E3,2.2593262E2,4.613672E1,1.4441895E2,3.3475708E1,1.5890692E2,2.391836E2,6.738203E2,9.674364E2,3.6906982E2,1.0092377E2,3.905078E2,3.45062E2,1.3335962E2,8.725122E1,5.6781226E2,7.047263E2,0E0,0E0,0E0,0E0,0E0,0E0,0E0,0E0,0E0,0E0,0E0,0E0,0E0,0E0,0E0,0E0,0E0,0E0,0E0,0E0,0E0,0E0,0E0,0E0,0E0,0E0,0E0,0E0,0E0,0E0,0E0,0E0],"parents":[2147483647,0,0,1,1,2,2,3,3,4,4,5,5,6,6,7,7,8,8,9,9,10,10,11,11,12,12,13,13,14,14,15,15,16,16,17,17,18,18,19,19,20,20,21,21,22,22,23,23,24,24,25,25,26,26,27,27,28,28,29,29,30,30],"right_children":[2,4,6,8,10,12,14,16,18,20,22,24,26,28,30,32,34,36,38,40,42,44,46,48,50,52,54,56,58,60,62,-1,-1,-1,-1,-1,-1,-1,-1,-1,-1,-1,-1,-1,-1,-1,-1,-1,-1,-1,-1,-1,-1,-1,-1,-1,-1,-1,-1,-1,-1,-1,-1],"split_conditions":[1E0,0E0,0E0,5.056383E-1,2.9510638E-1,2.9510638E-1,2.9510638E-1,1E3,1.8E3,1.4E3,1.8E3,2.5E3,1.8E3,1.4E3,1.8E3,3.2659575E-1,5E0,-5E-1,2E3,1.1E3,1.8E3,5.056383E-1,2.5E3,1.8E3,3E3,5.056383E-1,2.5E3,1.1E3,1.8E3,5.056383E-1,2.5E3,-4.537728E-2,-2.3426784E-2,-4.2558875E-2,-4.700462E-2,-2.3480063E-2,-7.318853E-3,-3.6393467E-2,-4.763065E-2,-3.7400175E-3,-1.4140129E-2,-2.4714429E-2,-4.0181376E-2,1.7339876E-2,3.176539E-2,3.95231E-3,-2.639998E-2,2.0446664E-2,3.4028594E-3,-2.0095555E-2,-4.167372E-2,4.1740976E-2,5.574533E-2,3.1028336E-2,1.541027E-2,-7.088368E-3,-1.8656986E-2,-2.9652286E-2,-4.2500492E-2,1.27026215E-2,2.917101E-2,-9.790723E-4,-2.539512E-2],"split_indices":[1,0,0,2,2,2,2,3,3,3,3,3,3,3,3,2,9,8,3,3,3,2,3,3,3,2,3,3,3,2,3,0,0,0,0,0,0,0,0,0,0,0,0,0,0,0,0,0,0,0,0,0,0,0,0,0,0,0,0,0,0,0,0],"split_type":[0,0,0,0,0,0,0,0,0,0,0,0,0,0,0,0,0,0,0,0,0,0,0,0,0,0,0,0,0,0,0,0,0,0,0,0,0,0,0,0,0,0,0,0,0,0,0,0,0,0,0,0,0,0,0,0,0,0,0,0,0,0,0],"sum_hessian":[2.7250566E5,1.4690452E5,1.25601125E5,5.8844035E4,8.8060484E4,6.674971E4,5.8851418E4,4.8548168E4,1.0295869E4,2.5644936E4,6.2415547E4,2.2409674E4,4.4340035E4,1.7572486E4,4.127893E4,4.7341943E3,4.3813973E4,7.561744E3,2.734125E3,1.4988272E4,1.0656663E4,4.4761742E4,1.76538E4,1.9800068E4,2.6096067E3,2.9951973E4,1.4388062E4,1.0934056E4,6.6384316E3,2.9010906E4,1.2268025E4,2.564645E3,2.1695496E3,3.669665E4,7.1173237E3,1.8212592E3,5.740485E3,1.2869459E3,1.4471791E3,6.4487944E3,8.539479E3,4.0293528E3,6.62731E3,3.4146844E4,1.0614899E4,1.4446641E4,3.20716E3,1.5824728E4,3.9753398E3,1.8379822E3,7.716245E2,2.3624713E4,6.3272603E3,8.102561E3,6.2855E3,3.8467114E3,7.087344E3,1.8471257E3,4.791306E3,2.2156086E4,6.85482E3,7.305263E3,4.962762E3],"tree_param":{"num_deleted":"0","num_feature":"15","num_nodes":"63","size_leaf_vector":"1"}},{"base_weights":[-4.712139E-4,-2.7112472E-1,1.9584057E-1,-1.17543414E-1,-4.8435515E-1,3.5134846E-1,-5.565354E-3,-1.8946123E-1,9.4472915E-2,-5.5447346E-1,-2.9251894E-1,2.791432E-1,5.3699696E-1,-9.283734E-2,2.0274828E-1,-2.943415E-1,-1.5373775E-1,7.8434385E-2,7.23767E-1,-4.1855663E-1,-6.971047E-1,-1.8748994E-1,-4.6474105E-1,1.5605773E-1,3.7721413E-1,4.3047154E-1,6.235196E-1,-5.5410333E-2,-5.5748487E-1,4.5052554E-2,3.2115978E-1,-3.4033384E-2,-6.1436403E-3,-1.3411756E-3,-8.950907E-3,-6.295008E-4,7.3861443E-3,4.4156156E-2,3.1050239E-2,-1.6272774E-2,-2.8356602E-2,-2.5831735E-2,-3.952867E-2,-1.7317832E-2,-6.679316E-3,-1.4784296E-2,-3.0639691E-2,1.2167421E-3,1.036198E-2,1.1740456E-2,2.1006865E-2,1.30969575E-2,2.426952E-2,3.0411948E-2,4.947081E-2,3.344142E-4,-9.127498E-3,-1.0363566E-2,-4.7686577E-2,-3.6937345E-3,7.0903166E-3,1.8309247E-2,-1.1991598E-2],"categories":[],"categories_nodes":[],"categories_segments":[],"categories_sizes":[],"default_left":[0,0,0,0,0,0,0,0,0,0,0,0,0,0,0,0,0,0,0,0,0,0,0,0,0,0,0,0,0,0,0,0,0,0,0,0,0,0,0,0,0,0,0,0,0,0,0,0,0,0,0,0,0,0,0,0,0,0,0,0,0,0,0],"id":20,"left_children":[1,3,5,7,9,11,13,15,17,19,21,23,25,27,29,31,33,35,37,39,41,43,45,47,49,51,53,55,57,59,61,-1,-1,-1,-1,-1,-1,-1,-1,-1,-1,-1,-1,-1,-1,-1,-1,-1,-1,-1,-1,-1,-1,-1,-1,-1,-1,-1,-1,-1,-1,-1,-1],"loss_changes":[1.4366293E4,3.722376E3,4.908411E3,1.00758734E3,6.399121E2,1.1852041E3,1.2413752E3,1.8477686E2,1.687891E2,6.7519824E2,2.303186E2,7.6849316E2,2.2783008E2,8.367788E2,3.7640198E2,8.3015955E2,1.1807379E2,1.0296384E2,6.053604E0,2.4660327E2,2.8624316E2,6.769992E1,1.20495605E2,1.903479E2,2.1643115E2,1.0254419E2,7.555908E1,3.5164697E2,4.9743555E2,9.952373E1,2.9093445E2,0E0,0E0,0E0,0E0,0E0,0E0,0E0,0E0,0E0,0E0,0E0,0E0,0E0,0E0,0E0,0E0,0E0,0E0,0E0,0E0,0E0,0E0,0E0,0E0,0E0,0E0,0E0,0E0,0E0,0E0,0E0,0E0],"parents":[2147483647,0,0,1,1,2,2,3,3,4,4,5,5,6,6,7,7,8,8,9,9,10,10,11,11,12,12,13,13,14,14,15,15,16,16,17,17,18,18,19,19,20,20,21,21,22,22,23,23,24,24,25,25,26,26,27,27,28,28,29,29,30,30],"right_children":[2,4,6,8,10,12,14,16,18,20,22,24,26,28,30,32,34,36,38,40,42,44,46,48,50,52,54,56,58,60,62,-1,-1,-1,-1,-1,-1,-1,-1,-1,-1,-1,-1,-1,-1,-1,-1,-1,-1,-1,-1,-1,-1,-1,-1,-1,-1,-1,-1,-1,-1,-1,-1],"split_conditions":[3.0659574E-1,1.4E3,1.4E3,2.9510638E-1,2.9510638E-1,5.056383E-1,5.056383E-1,-5E-1,1E0,0E0,2E3,0E0,0E0,3E3,0E0,6E0,1E3,0E0,1.1E3,2E3,1.8E3,-5E-1,0E0,-5E-1,-5E-1,-5E-1,1E0,2E3,0E0,1E0,3E3,-3.4033384E-2,-6.1436403E-3,-1.3411756E-3,-8.950907E-3,-6.295008E-4,7.3861443E-3,4.4156156E-2,3.1050239E-2,-1.6272774E-2,-2.8356602E-2,-2.5831735E-2,-3.952867E-2,-1.7317832E-2,-6.679316E-3,-1.4784296E-2,-3.0639691E-2,1.2167421E-3,1.036198E-2,1.1740456E-2,2.1006865E-2,1.30969575E-2,2.426952E-2,3.0411948E-2,4.947081E-2,3.344142E-4,-9.127498E-3,-1.0363566E-2,-4.7686577E-2,-3.6937345E-3,7.0903166E-3,1.8309247E-2,-1.1991598E-2],"split_indices":[2,3,3,2,2,2,2,8,5,0,3,0,0,3,0,4,3,0,3,3,3,8,0,8,8,8,5,3,0,13,3,0,0,0,0,0,0,0,0,0,0,0,0,0,0,0,0,0,0,0,0,0,0,0,0,0,0,0,0,0,0,0,0],"split_type":[0,0,0,0,0,0,0,0,0,0,0,0,0,0,0,0,0,0,0,0,0,0,0,0,0,0,0,0,0,0,0,0,0,0,0,0,0,0,0,0,0,0,0,0,0,0,0,0,0,0,0,0,0,0,0,0,0,0,0,0,0,0,0],"sum_hessian":[2.7038397E5,1.136692E5,1.5671475E5,6.607802E4,4.7591176E4,8.843371E4,6.828104E4,4.934153E4,1.6736496E4,3.485037E4,1.2740808E4,6.367252E4,2.4761193E4,4.8121754E4,2.0159285E4,1.2533566E4,3.6807965E4,1.6321903E4,4.1459286E2,1.7847795E4,1.7002574E4,7.916089E3,4.8247183E3,2.823704E4,3.543548E4,1.1101236E4,1.3659956E4,4.453587E4,3.585884E3,8.646535E3,1.151275E4,3.8516924E3,8.681874E3,6.1150396E3,3.0692924E4,7.0542207E3,9.267683E3,1.5888277E2,2.5571008E2,1.0974854E4,6.8729414E3,5.8041436E3,1.1198431E4,2.0034949E3,5.912594E3,2.254441E3,2.5702776E3,7.902513E3,2.0334525E4,8.209268E3,2.7226213E4,2.730419E3,8.370817E3,1.3115428E4,5.4452814E2,2.9921576E4,1.4614294E4,1.9045333E3,1.6813507E3,3.8784597E3,4.7680757E3,1.0657907E4,8.5484235E2],"tree_param":{"num_deleted":"0","num_feature":"15","num_nodes":"63","size_leaf_vector":"1"}},{"base_weights":[-3.2935984E-4,-2.4665695E-1,2.8820142E-1,-7.4341285E-1,8.303718E-2,5.6605136E-1,-2.6642092E-2,-8.221319E-1,-3.7902468E-1,-3.545056E-1,2.6234308E-1,2.4444449E-1,7.30378E-1,-3.5381454E-1,2.0283099E-1,-6.916378E-1,-8.3624095E-1,-2.2690877E-1,-8.083797E-1,-1.8152758E-1,-6.685807E-1,3.7714273E-1,-2.5573421E-2,3.396411E-1,-4.8316413E-1,8.59849E-1,4.6577427E-1,-1.8649903E-1,-6.617474E-1,3.039667E-1,-2.913916E-1,-4.49281E-2,-2.5174716E-2,-4.107503E-2,-4.5591917E-2,-2.1065315E-3,-1.6066208E-2,-3.4834456E-2,-4.5265812E-2,-6.309443E-3,-1.8334102E-2,-2.420428E-2,-3.718414E-2,1.550708E-2,2.898117E-2,1.9942508E-3,-3.7076123E-2,2.1251338E-2,6.6405213E-3,-1.821825E-2,-3.8683996E-2,4.0054187E-2,5.4144572E-2,2.9489202E-2,1.530242E-2,-1.4421123E-2,4.4490397E-3,-3.7439577E-2,-2.2640597E-2,1.1436011E-2,2.485326E-2,-8.098284E-3,-3.8160186E-2],"categories":[],"categories_nodes":[],"categories_segments":[],"categories_sizes":[],"default_left":[0,0,0,0,0,0,0,0,0,0,0,0,0,0,0,0,0,0,0,0,0,0,0,0,0,0,0,0,0,0,0,0,0,0,0,0,0,0,0,0,0,0,0,0,0,0,0,0,0,0,0,0,0,0,0,0,0,0,0,0,0,0,0],"id":21,"left_children":[1,3,5,7,9,11,13,15,17,19,21,23,25,27,29,31,33,35,37,39,41,43,45,47,49,51,53,55,57,59,61,-1,-1,-1,-1,-1,-1,-1,-1,-1,-1,-1,-1,-1,-1,-1,-1,-1,-1,-1,-1,-1,-1,-1,-1,-1,-1,-1,-1,-1,-1,-1,-1],"loss_changes":[1.914388E4,2.3797723E4,1.0851912E4,1.6622578E3,6.8522065E3,3.4822598E3,4.366194E3,8.697266E1,6.724121E2,1.3790701E3,2.0477354E3,1.5438242E3,1.4935078E3,1.23499E3,1.7086061E3,1.8070508E2,4.6929688E1,1.3266397E2,2.831311E1,1.6766296E2,1.2440674E2,6.006006E2,8.2778827E2,3.4793848E2,8.857721E1,3.826582E2,2.8357617E2,4.3625928E2,1.529978E2,4.1209912E2,3.5436905E2,0E0,0E0,0E0,0E0,0E0,0E0,0E0,0E0,0E0,0E0,0E0,0E0,0E0,0E0,0E0,0E0,0E0,0E0,0E0,0E0,0E0,0E0,0E0,0E0,0E0,0E0,0E0,0E0,0E0,0E0,0E0,0E0],"parents":[2147483647,0,0,1,1,2,2,3,3,4,4,5,5,6,6,7,7,8,8,9,9,10,10,11,11,12,12,13,13,14,14,15,15,16,16,17,17,18,18,19,19,20,20,21,21,22,22,23,23,24,24,25,25,26,26,27,27,28,28,29,29,30,30],"right_children":[2,4,6,8,10,12,14,16,18,20,22,24,26,28,30,32,34,36,38,40,42,44,46,48,50,52,54,56,58,60,62,-1,-1,-1,-1,-1,-1,-1,-1,-1,-1,-1,-1,-1,-1,-1,-1,-1,-1,-1,-1,-1,-1,-1,-1,-1,-1,-1,-1,-1,-1,-1,-1],"split_conditions":[1E0,0E0,0E0,5.056383E-1,2.9510638E-1,2.9510638E-1,3.0659574E-1,1E3,1.8E3,1.5E3,1.8E3,2.5E3,1.8E3,1.5E3,2E3,3.0553192E-1,5E0,1.1E3,2E3,1.3E3,1.8E3,3.4585106E-1,3E3,1.5E3,3E3,5.056383E-1,2.5E3,2.9510638E-1,2.9510638E-1,5.056383E-1,3E3,-4.49281E-2,-2.5174716E-2,-4.107503E-2,-4.5591917E-2,-2.1065315E-3,-1.6066208E-2,-3.4834456E-2,-4.5265812E-2,-6.309443E-3,-1.8334102E-2,-2.420428E-2,-3.718414E-2,1.550708E-2,2.898117E-2,1.9942508E-3,-3.7076123E-2,2.1251338E-2,6.6405213E-3,-1.821825E-2,-3.8683996E-2,4.0054187E-2,5.4144572E-2,2.9489202E-2,1.530242E-2,-1.4421123E-2,4.4490397E-3,-3.7439577E-2,-2.2640597E-2,1.1436011E-2,2.485326E-2,-8.098284E-3,-3.8160186E-2],"split_indices":[1,0,0,2,2,2,2,3,3,3,3,3,3,3,3,2,9,3,3,3,3,2,3,3,3,2,3,2,2,2,3,0,0,0,0,0,0,0,0,0,0,0,0,0,0,0,0,0,0,0,0,0,0,0,0,0,0,0,0,0,0,0,0],"split_type":[0,0,0,0,0,0,0,0,0,0,0,0,0,0,0,0,0,0,0,0,0,0,0,0,0,0,0,0,0,0,0,0,0,0,0,0,0,0,0,0,0,0,0,0,0,0,0,0,0,0,0,0,0,0,0,0,0,0,0,0,0,0,0],"sum_hessian":[2.6935266E5,1.453033E5,1.2404938E5,5.7965137E4,8.733816E4,6.589573E4,5.815365E4,4.7666137E4,1.0299002E4,2.5387027E4,6.195113E4,2.2284887E4,4.3610844E4,2.3973354E4,3.4180297E4,4.6569053E3,4.300923E4,7.6061406E3,2.6928608E3,1.6372092E4,9.014935E3,4.4291133E4,1.7659996E4,1.9707219E4,2.577668E3,2.9280836E4,1.4330007E4,1.5534671E4,8.438683E3,2.8374484E4,5.8058125E3,2.2155312E3,2.4413738E3,3.6003453E4,7.0057773E3,2.573079E3,5.0330615E3,1.2558752E3,1.4369857E3,1.2606628E4,3.7654636E3,2.6107974E3,6.404137E3,3.328151E4,1.100962E4,1.6181442E4,1.4785526E3,1.3947602E4,5.759617E3,1.8315325E3,7.4613556E2,2.3179271E4,6.101565E3,8.0649014E3,6.2651055E3,1.1339526E4,4.195145E3,5.954622E3,2.4840605E3,2.042011E4,7.9543735E3,4.557346E3,1.2484667E3],"tree_param":{"num_deleted":"0","num_feature":"15","num_nodes":"63","size_leaf_vector":"1"}},{"base_weights":[3.0110852E-4,-2.3511223E-1,2.753644E-1,-4.821947E-1,-6.1458394E-2,9.48367E-3,4.7552323E-1,-5.438983E-1,-3.114433E-1,-1.4466797E-1,1.3497433E-1,-5.7094004E-2,2.0545116E-1,4.0895042E-1,6.5511924E-1,-5.508389E-1,-5.829173E-2,-3.3445022E-1,5.2483994E-1,-1.5392342E-1,4.4403657E-1,1.17883064E-1,8.396084E-1,2.6549375E-2,-1.4199817E-1,3.1223336E-1,1.0181474E-1,4.9794492E-1,3.2260835E-1,7.3601085E-1,5.820612E-1,-2.5059154E-2,-2.881828E-2,-4.35546E-2,2.9470723E-3,-1.419236E-2,-2.1695498E-2,3.152862E-2,1.5151738E-2,-3.7131028E-3,-9.868874E-3,5.886087E-3,2.532183E-2,1.7944355E-4,1.0019876E-2,3.9057475E-2,4.463433E-2,-3.7046873E-3,5.0571547E-3,-1.1681697E-2,-3.694972E-3,1.1167473E-2,1.9685674E-2,1.7030144E-2,3.6843535E-3,2.1548666E-2,2.790162E-2,1.1568859E-2,2.0177651E-2,3.3794355E-2,3.9550833E-2,2.497623E-2,3.286551E-2],"categories":[],"categories_nodes":[],"categories_segments":[],"categories_sizes":[],"default_left":[0,0,0,0,0,0,0,0,0,0,0,0,0,0,0,0,0,0,0,0,0,0,0,0,0,0,0,0,0,0,0,0,0,0,0,0,0,0,0,0,0,0,0,0,0,0,0,0,0,0,0,0,0,0,0,0,0,0,0,0,0,0,0],"id":22,"left_children":[1,3,5,7,9,11,13,15,17,19,21,23,25,27,29,31,33,35,37,39,41,43,45,47,49,51,53,55,57,59,61,-1,-1,-1,-1,-1,-1,-1,-1,-1,-1,-1,-1,-1,-1,-1,-1,-1,-1,-1,-1,-1,-1,-1,-1,-1,-1,-1,-1,-1,-1,-1,-1],"loss_changes":[1.732693E4,6.1863467E3,6.5670713E3,6.267158E2,1.3840372E3,6.9152313E2,8.4132324E2,1.4722949E2,3.0415833E2,3.2413647E2,3.0323032E2,2.8096143E2,1.4866522E2,3.944287E2,1.11899414E2,5.419922E1,5.8966072E1,7.71853E1,9.624359E0,2.026698E2,1.8620789E1,2.3198447E2,9.159241E-1,1.4962146E2,1.22466095E2,4.777722E1,4.5757446E1,1.01413574E2,1.923877E2,2.9125977E1,6.1683838E1,0E0,0E0,0E0,0E0,0E0,0E0,0E0,0E0,0E0,0E0,0E0,0E0,0E0,0E0,0E0,0E0,0E0,0E0,0E0,0E0,0E0,0E0,0E0,0E0,0E0,0E0,0E0,0E0,0E0,0E0,0E0,0E0],"parents":[2147483647,0,0,1,1,2,2,3,3,4,4,5,5,6,6,7,7,8,8,9,9,10,10,11,11,12,12,13,13,14,14,15,15,16,16,17,17,18,18,19,19,20,20,21,21,22,22,23,23,24,24,25,25,26,26,27,27,28,28,29,29,30,30],"right_children":[2,4,6,8,10,12,14,16,18,20,22,24,26,28,30,32,34,36,38,40,42,44,46,48,50,52,54,56,58,60,62,-1,-1,-1,-1,-1,-1,-1,-1,-1,-1,-1,-1,-1,-1,-1,-1,-1,-1,-1,-1,-1,-1,-1,-1,-1,-1,-1,-1,-1,-1,-1,-1],"split_conditions":[1E0,3.0659574E-1,3.0659574E-1,2.9510638E-1,5.056383E-1,2.9510638E-1,5.056383E-1,1E0,1E0,1E0,1E0,1E0,1E0,1E0,1E0,1.17E2,3E0,1E0,1E0,5E0,3E0,6E0,1.59E2,1.54E2,1.54E2,1.73E2,3.6E1,2.5E1,1.69E2,1.73E2,1.73E2,-2.5059154E-2,-2.881828E-2,-4.35546E-2,2.9470723E-3,-1.419236E-2,-2.1695498E-2,3.152862E-2,1.5151738E-2,-3.7131028E-3,-9.868874E-3,5.886087E-3,2.532183E-2,1.7944355E-4,1.0019876E-2,3.9057475E-2,4.463433E-2,-3.7046873E-3,5.0571547E-3,-1.1681697E-2,-3.694972E-3,1.1167473E-2,1.9685674E-2,1.7030144E-2,3.6843535E-3,2.1548666E-2,2.790162E-2,1.1568859E-2,2.0177651E-2,3.3794355E-2,3.9550833E-2,2.497623E-2,3.286551E-2],"split_indices":[1,2,2,2,2,2,2,5,5,5,5,13,13,13,13,10,4,7,7,4,4,4,10,10,10,10,10,14,10,10,10,0,0,0,0,0,0,0,0,0,0,0,0,0,0,0,0,0,0,0,0,0,0,0,0,0,0,0,0,0,0,0,0],"split_type":[0,0,0,0,0,0,0,0,0,0,0,0,0,0,0,0,0,0,0,0,0,0,0,0,0,0,0,0,0,0,0,0,0,0,0,0,0,0,0,0,0,0,0,0,0,0,0,0,0,0,0,0,0,0,0,0,0,0,0,0,0,0,0],"sum_hessian":[2.6758034E5,1.4418186E5,1.23398484E5,5.9508285E4,8.467358E4,5.2998992E4,7.039949E4,4.3710023E4,1.579826E4,5.947891E4,2.5194672E4,3.9559414E4,1.343958E4,5.1364E4,1.903549E4,4.3093746E4,6.1627997E2,1.537603E4,4.22229E2,5.855924E4,9.196703E2,2.4599426E4,5.95246E2,1.9927453E4,1.9631959E4,6.6177637E3,6.821817E3,2.5290342E4,2.6073656E4,9.028056E3,1.0007434E4,1.4640645E4,2.84531E4,7.689962E1,5.393804E2,1.01945205E4,5.18151E3,2.842511E2,1.3797792E2,2.0670572E4,3.7888668E4,1.484008E2,7.712695E2,1.0314602E4,1.4284823E4,2.9238922E2,3.0285678E2,8.482026E3,1.1445428E4,8.36782E3,1.126414E4,3.1676382E3,3.4501255E3,7.172226E2,6.104594E3,1.1965087E4,1.3325255E4,1.2260527E4,1.381313E4,4.3212124E3,4.7068438E3,4.777253E3,5.230181E3],"tree_param":{"num_deleted":"0","num_feature":"15","num_nodes":"63","size_leaf_vector":"1"}},{"base_weights":[-6.474042E-4,-2.242157E-1,2.6099434E-1,-7.072111E-1,9.0468936E-2,5.3157836E-1,-4.2732105E-2,-7.812893E-1,-3.70158E-1,-3.2005614E-1,2.5718692E-1,2.362327E-1,6.860585E-1,-4.2489332E-1,1.19104244E-1,-6.529776E-1,-7.9527766E-1,-2.2145319E-1,-7.911389E-1,-1.3801602E-1,-5.865198E-1,3.9631793E-1,4.2319424E-2,3.4771416E-1,-3.3494943E-1,8.1852084E-1,4.204794E-1,-2.7288437E-1,-7.1750355E-1,2.6455685E-1,-2.204928E-1,-4.1594174E-2,-2.3035763E-2,-3.9005782E-2,-4.3652922E-2,-3.0805187E-3,-1.5171344E-2,-3.448195E-2,-4.4009138E-2,2.562695E-3,-9.01296E-3,-2.059976E-2,-3.480773E-2,1.6983252E-2,2.9302323E-2,5.830481E-3,-2.2873068E-2,2.4374586E-2,1.3118816E-2,-1.1353011E-2,-3.8046896E-2,3.8023718E-2,5.223598E-2,2.7830908E-2,1.22507205E-2,-8.970948E-3,-1.871523E-2,-2.674557E-2,-3.85869E-2,1.0017053E-2,2.4151057E-2,-1.737467E-2,6.4758672E-3],"categories":[],"categories_nodes":[],"categories_segments":[],"categories_sizes":[],"default_left":[0,0,0,0,0,0,0,0,0,0,0,0,0,0,0,0,0,0,0,0,0,0,0,0,0,0,0,0,0,0,0,0,0,0,0,0,0,0,0,0,0,0,0,0,0,0,0,0,0,0,0,0,0,0,0,0,0,0,0,0,0,0,0],"id":23,"left_children":[1,3,5,7,9,11,13,15,17,19,21,23,25,27,29,31,33,35,37,39,41,43,45,47,49,51,53,55,57,59,61,-1,-1,-1,-1,-1,-1,-1,-1,-1,-1,-1,-1,-1,-1,-1,-1,-1,-1,-1,-1,-1,-1,-1,-1,-1,-1,-1,-1,-1,-1,-1,-1],"loss_changes":[1.558744E4,2.18402E4,1.0090793E4,1.4149492E3,5.9550073E3,2.9623652E3,3.5779338E3,8.269531E1,6.392656E2,1.2187952E3,1.8497815E3,1.4202252E3,1.4993184E3,7.651902E2,2.0075032E3,1.5681934E2,4.8496094E1,9.88862E1,2.327185E1,1.1940585E2,1.9472192E2,4.0338965E2,9.0305225E2,2.2237305E2,1.671134E2,3.7242188E2,3.387439E2,1.0725543E2,5.7673584E1,3.9900354E2,5.418125E2,0E0,0E0,0E0,0E0,0E0,0E0,0E0,0E0,0E0,0E0,0E0,0E0,0E0,0E0,0E0,0E0,0E0,0E0,0E0,0E0,0E0,0E0,0E0,0E0,0E0,0E0,0E0,0E0,0E0,0E0,0E0,0E0],"parents":[2147483647,0,0,1,1,2,2,3,3,4,4,5,5,6,6,7,7,8,8,9,9,10,10,11,11,12,12,13,13,14,14,15,15,16,16,17,17,18,18,19,19,20,20,21,21,22,22,23,23,24,24,25,25,26,26,27,27,28,28,29,29,30,30],"right_children":[2,4,6,8,10,12,14,16,18,20,22,24,26,28,30,32,34,36,38,40,42,44,46,48,50,52,54,56,58,60,62,-1,-1,-1,-1,-1,-1,-1,-1,-1,-1,-1,-1,-1,-1,-1,-1,-1,-1,-1,-1,-1,-1,-1,-1,-1,-1,-1,-1,-1,-1,-1,-1],"split_conditions":[1E0,0E0,0E0,5.056383E-1,2.9510638E-1,2.9510638E-1,2.9510638E-1,1E3,1.8E3,1.4E3,1.5E3,2E3,1.8E3,1.5E3,1.8E3,3.0723405E-1,5E0,1.1E3,2E3,1E3,1.8E3,5.056383E-1,2.5E3,1.2E3,3E3,5.056383E-1,2.5E3,1.2E3,1.8E3,5.056383E-1,5.056383E-1,-4.1594174E-2,-2.3035763E-2,-3.9005782E-2,-4.3652922E-2,-3.0805187E-3,-1.5171344E-2,-3.448195E-2,-4.4009138E-2,2.562695E-3,-9.01296E-3,-2.059976E-2,-3.480773E-2,1.6983252E-2,2.9302323E-2,5.830481E-3,-2.2873068E-2,2.4374586E-2,1.3118816E-2,-1.1353011E-2,-3.8046896E-2,3.8023718E-2,5.223598E-2,2.7830908E-2,1.22507205E-2,-8.970948E-3,-1.871523E-2,-2.674557E-2,-3.85869E-2,1.0017053E-2,2.4151057E-2,-1.737467E-2,6.4758672E-3],"split_indices":[1,0,0,2,2,2,2,3,3,3,3,3,3,3,3,2,9,3,3,3,3,2,3,3,3,2,3,3,3,2,2,0,0,0,0,0,0,0,0,0,0,0,0,0,0,0,0,0,0,0,0,0,0,0,0,0,0,0,0,0,0,0,0],"split_type":[0,0,0,0,0,0,0,0,0,0,0,0,0,0,0,0,0,0,0,0,0,0,0,0,0,0,0,0,0,0,0,0,0,0,0,0,0,0,0,0,0,0,0,0,0,0,0,0,0,0,0,0,0,0,0,0,0,0,0,0,0,0,0],"sum_hessian":[2.6647353E5,1.4369188E5,1.2278166E5,5.6686004E4,8.700586E4,6.493332E4,5.7848336E4,4.6470805E4,1.0215198E4,2.5128363E4,6.18775E4,2.2300723E4,4.2632598E4,1.720922E4,4.0639117E4,4.5740312E3,4.1896773E4,7.550146E3,2.6650527E3,1.49304E4,1.0197964E4,3.7557117E4,2.432038E4,1.865944E4,3.6412825E3,2.8443322E4,1.4189276E4,1.1327257E4,5.8819634E3,2.8452977E4,1.218614E4,2.3671487E3,2.2068826E3,3.507325E4,6.823525E3,2.5605005E3,4.9896455E3,1.2504376E3,1.414615E3,2.7238098E3,1.220659E4,3.9369648E3,6.260999E3,2.8924008E4,8.63311E3,2.1174002E4,3.1463782E3,7.0711025E3,1.1588337E4,2.9069631E3,7.3431946E2,2.2639004E4,5.8043184E3,7.9883564E3,6.2009204E3,5.896904E3,5.430353E3,1.3501559E3,4.531807E3,2.1991361E4,6.4616147E3,8.941885E3,3.2442551E3],"tree_param":{"num_deleted":"0","num_feature":"15","num_nodes":"63","size_leaf_vector":"1"}},{"base_weights":[6.1695615E-4,-2.2778997E-1,1.6618533E-1,-9.111321E-2,-4.2091975E-1,3.048925E-1,-1.1857982E-2,-1.5022962E-1,8.45569E-2,-3.3634454E-1,-5.6154096E-1,2.4222985E-1,4.6928293E-1,-8.873497E-2,1.7344663E-1,-2.1296704E-1,-1.015104E-1,7.055146E-2,6.2723464E-1,-3.9500952E-1,-1.7824323E-1,-4.3294942E-1,-6.9480973E-1,1.3313453E-1,3.2658055E-1,3.7201592E-1,5.478285E-1,7.733248E-3,-2.48214E-1,3.540937E-2,2.7573007E-1,-6.1021033E-3,-2.9587647E-2,8.209228E-4,-6.250349E-3,5.9781256E-3,-1.4616972E-3,3.480373E-2,2.3618056E-2,-1.3762689E-2,-2.5921855E-2,-9.584646E-3,1.7330782E-2,-1.9107578E-2,-3.1789716E-2,-3.5489E-2,-5.6334226E-3,2.4135431E-2,5.8494997E-3,2.052529E-2,1.36745125E-2,1.3926896E-2,2.2364845E-2,2.6651934E-2,4.5276284E-2,-6.007037E-3,5.3140162E-3,-9.016878E-3,-2.6444713E-2,-3.5607293E-3,6.163399E-3,1.593913E-2,-1.2788755E-2],"categories":[],"categories_nodes":[],"categories_segments":[],"categories_sizes":[],"default_left":[0,0,0,0,0,0,0,0,0,0,0,0,0,0,0,0,0,0,0,0,0,0,0,0,0,0,0,0,0,0,0,0,0,0,0,0,0,0,0,0,0,0,0,0,0,0,0,0,0,0,0,0,0,0,0,0,0,0,0,0,0,0,0],"id":24,"left_children":[1,3,5,7,9,11,13,15,17,19,21,23,25,27,29,31,33,35,37,39,41,43,45,47,49,51,53,55,57,59,61,-1,-1,-1,-1,-1,-1,-1,-1,-1,-1,-1,-1,-1,-1,-1,-1,-1,-1,-1,-1,-1,-1,-1,-1,-1,-1,-1,-1,-1,-1,-1,-1],"loss_changes":[9.99278E3,2.9311455E3,3.7832876E3,6.753484E2,5.4700977E2,8.868296E2,9.5568274E2,1.4866418E2,1.2433006E2,2.6642114E2,2.9570312E2,5.736448E2,1.8123145E2,7.294994E2,2.7768823E2,7.322913E2,7.591168E1,7.808294E1,3.910019E0,3.0957593E2,5.498053E1,9.028723E1,7.3765625E1,1.5332236E2,1.5646802E2,7.452673E1,6.885962E1,3.7232767E2,3.403081E2,7.8459206E1,2.5862567E2,0E0,0E0,0E0,0E0,0E0,0E0,0E0,0E0,0E0,0E0,0E0,0E0,0E0,0E0,0E0,0E0,0E0,0E0,0E0,0E0,0E0,0E0,0E0,0E0,0E0,0E0,0E0,0E0,0E0,0E0,0E0,0E0],"parents":[2147483647,0,0,1,1,2,2,3,3,4,4,5,5,6,6,7,7,8,8,9,9,10,10,11,11,12,12,13,13,14,14,15,15,16,16,17,17,18,18,19,19,20,20,21,21,22,22,23,23,24,24,25,25,26,26,27,27,28,28,29,29,30,30],"right_children":[2,4,6,8,10,12,14,16,18,20,22,24,26,28,30,32,34,36,38,40,42,44,46,48,50,52,54,56,58,60,62,-1,-1,-1,-1,-1,-1,-1,-1,-1,-1,-1,-1,-1,-1,-1,-1,-1,-1,-1,-1,-1,-1,-1,-1,-1,-1,-1,-1,-1,-1,-1,-1],"split_conditions":[3.0659574E-1,1.4E3,1.4E3,2.9510638E-1,2E3,5.056383E-1,5.056383E-1,1.56E2,1E0,2.9510638E-1,0E0,0E0,0E0,2E3,0E0,5E0,1E3,1E0,1E0,0E0,1E0,3E3,1E0,9E2,1.1E3,6E0,1E0,0E0,3E3,1E0,3E3,-6.1021033E-3,-2.9587647E-2,8.209228E-4,-6.250349E-3,5.9781256E-3,-1.4616972E-3,3.480373E-2,2.3618056E-2,-1.3762689E-2,-2.5921855E-2,-9.584646E-3,1.7330782E-2,-1.9107578E-2,-3.1789716E-2,-3.5489E-2,-5.6334226E-3,2.4135431E-2,5.8494997E-3,2.052529E-2,1.36745125E-2,1.3926896E-2,2.2364845E-2,2.6651934E-2,4.5276284E-2,-6.007037E-3,5.3140162E-3,-9.016878E-3,-2.6444713E-2,-3.5607293E-3,6.163399E-3,1.593913E-2,-1.2788755E-2],"split_indices":[2,3,3,2,3,2,2,10,5,2,0,0,0,3,0,4,3,7,7,0,5,3,5,3,3,4,5,0,3,13,3,0,0,0,0,0,0,0,0,0,0,0,0,0,0,0,0,0,0,0,0,0,0,0,0,0,0,0,0,0,0,0,0],"split_type":[0,0,0,0,0,0,0,0,0,0,0,0,0,0,0,0,0,0,0,0,0,0,0,0,0,0,0,0,0,0,0,0,0,0,0,0,0,0,0,0,0,0,0,0,0,0,0,0,0,0,0,0,0,0,0,0,0,0,0,0,0,0,0],"sum_hessian":[2.6423866E5,1.1104604E5,1.5319261E5,6.5028152E4,4.6017887E4,8.6108414E4,6.7084195E4,4.8655395E4,1.6372757E4,2.8738094E4,1.7279795E4,6.2346418E4,2.3761994E4,4.7414527E4,1.9669668E4,2.1265418E4,2.7389977E4,1.596223E4,4.1052628E2,2.0958836E4,7.779258E3,8.796979E3,8.482816E3,2.7187453E4,3.5158965E4,1.0619232E4,1.3142763E4,2.954394E4,1.787059E4,8.372699E3,1.1296968E4,1.7150318E4,4.1150986E3,4.5499473E3,2.284003E4,1.0705066E4,